tree
version=v4
num_class=1
num_tree_per_iteration=1
label_index=0
max_feature_idx=100
objective=regression
feature_names=category views_count photos_count floor_number floors_count county district street house metro travel_type travel_time repair_type total_area living_area kitchen_area ceiling_height balconies loggias rooms_count separated_wc combined_wc windows_view build_year material_type parking_type garbage_chute lifts_count passenger_lifts cargo_lifts realty_type project_type heat_type gas_type is_apartment is_penthouse is_mortgage_allowed is_premium deal_type flat_type payment_period deposit prepay_months utilities_included client_fee agent_fee developer_name developer_review_count developer_rate developer_buildings_count developer_foundation_year developer_is_reliable price_per_sqm house_age lat lng distance_from_center distance_to_metro district_encoded metro_walking_time metro_transport_time has_metro_nearby metro_accessibility_zone estimated_distance_to_metro_km publication_month publication_day_of_week is_weekend publication_month_sin publication_month_cos publication_day_sin publication_day_cos publication_season publication_quarter floor_ratio is_first_floor is_last_floor is_middle_floor building_type_category material_floor_interaction floor_position_normalized floor_third district_cluster_kmeans cluster_price_mean district_cluster_hdbscan total_area_squared rooms_count_squared kitchen_area_squared rooms_area_interaction living_total_interaction kitchen_total_interaction living_area_ratio kitchen_area_ratio price_sqm_district_interaction price_sqm_repair_interaction area_repair_interaction area_material_interaction floor_area_interaction floor_rooms_interaction year_area_interaction distance_area_interaction distance_price_sqm_interaction
feature_infos=none none [1:50] [-2:81] [1:117] -1:2:9:5:11:10:4:6:12:7:1:3:8 -1:0:82:112:84:77:26:113:123:110:52:108:120:7:59:103:24:25:55:80:119:67:102:75:63:48:60:115:45:76:31:8:118:66:44:99:37:109:30:29:86:107:22:72:5:15:64:104:6:32:11:1:111:114:13:4:97:2:106:18:89:10:83:93:27:47:74:53:91:126:38:105:41:54:16:124:58:65:78:87:81:35:3:70:121:49:57:62:122:28:23:92:9:101:40:51:34:73:98:96:125:117:50:116:90:61:85:43:42:69:79:39:94:19:33:20:14:71:12:88:56:46:100:95:36:17:68 -1:202:629:1958:397:15:456:400:373:631:849:1029:657:1315:1017:630:791:1967:218:89:731:220:1013:606:724:733:1933:744:266:1765:1062:1358:264:208:1344:1929:1907:1038:1588:845:1021:1554:289:806:1377:469:8:300:553:621:195:1262:574:473:720:951:1020:1466:1003:1025:1825:537:1979:267:818:1049:1087:1647:913:995:1334:1193:363:1380:167:276:1323:353:1056:531:1579:339:1829:992:1343:1362:1911:1998:130:753:1698:530:1428:1664:1887:647:998:1296:1329:1751:343:1106:1939:2000:390:596:1206:1436:1669:1832:277:550:559:760:1120:1286:1363:1548:472:1687:1974:532:544:742:821:1092:1330:1923:1928:302:1381:1604:1984:340:421:1290:1947:451:594:833:964:1302:1813:781:828:67:238:590:618:755:1012:1412:1532:1533:219:239:466:582:943:1305:1347:1388:206:1050:1204:1318:1633:1681:1769:1789:1963:301:576:774:809:1000:1015:1376:1452:247:271:366:375:392:438:455:1014:1196:1587:1729:1744:242:807:1481:1526:1866:1894:1999:209:355:642:1011:1018:1019:1287:1387:1465:1651:29:237:261:644:700:805:1186:1226:1673:1711:1772:1987:280:429:625:721:746:911:1112:1445:1514:1695:1731:1734:1965:1975:714:716:735:784:1052:1341:1448:1495:1538:1732:1755:1962:262:505:564:772:777:1071:1395:1675:58:223:463:482:507:728:732:931:1345:1475:1667:1713:1815:1819:1838:1847:259:447:592:725:858:922:936:1103:1176:1557:1642:1653:1690:1840:1951:2003:200:506:572:838:863:1009:1184:1258:1285:1499:1569:1663:1745:1784:1834:75:263:336:356:365:457:487:566:655:674:976:1016:1124:1132:1152:1183:1310:1346:1366:1385:1505:1577:1578:1582:1602:1609:1643:1785:1889:1917:46:354:528:588:761:820:824:940:1004:1102:1122:1243:1397:1418:1590:1661:1761:1867:1878:293:398:734:1085:1110:1164:1194:1374:1424:1430:1618:1629:1709:1787:1806:1888:367:440:488:602:996:1072:1073:1309:1311:1417:1443:1503:1617:1646:1650:1693:1697:1831:1909:243:252:405:416:481:565:670:736:737:769:1060:1212:1312:1336:1396:1515:1552:1564:1619:1645:1660:1854:1925:63:88:246:413:501:552:554:702:707:775:792:891:986:999:1061:1078:1111:1352:1457:1458:1565:1608:1655:1720:1760:1837:1914:65:108:122:188:190:203:342:524:527:593:663:822:1149:1192:1214:1229:1237:1390:1393:1421:1427:1524:1727:1747:1774:282:358:412:424:430:494:562:641:678:846:860:881:918:926:1033:1086:1158:1239:1279:1291:1294:1306:1432:1489:1512:1546:1550:1573:1620:1644:1716:1733:1799:1827:1906:1938:1964:221:240:254:257:285:407:418:439:446:483:492:500:534:555:587:589:743:749:763:773:789:796:815:944:1026:1063:1108:1218:1240:1301:1340:1355:1410:1438:1449:1494:1520:1583:1628:1652:1658:1722:1726:1777:1780:1810:1833:1852:1864:1902:1946:1994:204:269:294:295:351:357:402:459:546:549:604:614:619:628:654:669:739:762:776:797:800:839:978:1032:1040:1046:1088:1105:1121:1137:1180:1247:1326:1328:1349:1359:1383:1444:1468:1479:1492:1508:1516:1535:1543:1592:1614:1835:1873:1921:1934:1943:2006:30:40:68:70:107:193:211:275:368:521:652:658:703:709:901:963:1023:1101:1115:1251:1295:1300:1356:1384:1453:1517:1559:1576:1621:1654:1679:1742:1807:1836:1862:1905:1940:1989:9:124:126:131:150:168:217:241:296:332:352:359:423:453:461:478:486:511:598:615:717:718:740:787:799:856:866:867:870:921:949:974:977:1130:1138:1151:1160:1175:1181:1265:1283:1284:1337:1484:1502:1519:1529:1536:1540:1547:1549:1594:1607:1635:1648:1735:1752:1768:1796:1823:1849:1884:1890:1950:1960:1971:1981:19:43:52:111:127:143:158:205:210:215:232:270:272:314:347:350:382:385:417:499:515:523:584:585:586:605:627:645:722:934:938:1034:1081:1119:1133:1182:1227:1273:1342:1371:1415:1441:1483:1498:1521:1531:1566:1585:1657:1671:1712:1719:1770:1805:1811:1844:1856:1860:1872:1919:1959:1966:145:147:151:177:180:201:235:306:344:419:427:467:493:525:526:548:557:583:599:600:609:660:727:745:747:786:810:816:852:861:927:953:982:991:1022:1028:1041:1043:1084:1095:1135:1156:1161:1185:1205:1246:1272:1278:1368:1425:1434:1446:1462:1491:1497:1553:1567:1574:1627:1636:1640:1641:1685:1724:1750:1793:1794:1821:1841:1875:1879:1893:1896:1897:1920:1941:1983:36:41:109:114:129:153:164:178:214:216:227:245:255:260:278:299:313:360:371:391:420:475:496:498:536:571:601:626:637:681:811:842:892:909:1054:1057:1091:1150:1155:1159:1167:1200:1267:1277:1292:1307:1321:1354:1367:1411:1507:1562:1601:1612:1625:1630:1649:1703:1705:1707:1710:1715:1725:1741:1753:1775:1776:1792:1817:1842:1863:1898:1904:1931:1992:2001:24:33:60:93:97:148:156:166:170:181:197:233:307:315:379:381:406:408:443:464:484:490:495:503:543:556:573:575:577:632:636:638:664:673:697:705:750:782:785:790:793:798:802:808:819:823:837:946:979:1039:1048:1066:1070:1090:1097:1104:1172:1174:1178:1191:1207:1209:1233:1236:1257:1276:1360:1365:1375:1394:1409:1422:1476:1496:1551:1597:1605:1622:1683:1684:1740:1746:1764:1790:1808:1846:1848:1851:1880:1915:1942:1948:1972:6:61:66:74:96:105:132:140:286:288:304:320:349:362:374:404:415:448:462:485:509:603:635:640:650:677:756:770:794:803:804:834:835:841:843:854:874:876:879:920:923:935:947:950:969:981:985:1008:1051:1053:1059:1069:1089:1096:1099:1125:1139:1198:1215:1217:1220:1222:1232:1234:1256:1274:1282:1293:1308:1327:1351:1353:1403:1420:1472:1490:1513:1523:1528:1537:1539:1544:1555:1558:1593:1611:1613:1616:1632:1662:1666:1670:1728:1730:1739:1749:1759:1763:1771:1797:1798:1812:1865:1870:1886:1930:1944:1953:1956:1976:1991:1995:1996:4:27:45:84:98:116:118:120:135:172:194:230:249:253:256:279:292:298:303:312:326:330:341:348:370:377:380:388:399:411:436:437:444:465:474:479:491:518:547:568:580:597:612:622:661:679:686:710:723:754:766:780:840:864:887:893:917:932:942:961:962:965:987:997:1036:1037:1045:1075:1076:1100:1117:1127:1134:1136:1144:1153:1165:1177:1201:1211:1223:1230:1231:1245:1322:1369:1400:1402:1405:1407:1413:1416:1419:1433:1460:1461:1467:1471:1506:1525:1541:1563:1570:1571:1598:1600:1603:1606:1615:1634:1656:1672:1677:1680:1696:1702:1721:1723:1738:1756:1773:1791:1795:1801:1802:1804:1830:1853:1855:1871:1876:1882:1891:1901:1916:1937:1969:1978:1980:1993:2004:2:7:10:12:20:31:42:50:51:71:87:94:102:115:121:141:142:146:154:162:169:182:185:265:287:290:323:335:337:338:361:372:386:389:394:414:422:431:433:434:445:476:502:510:512:514:516:519:563:591:608:617:620:623:646:666:676:682:689:690:726:738:748:751:757:764:767:812:825:826:832:847:851:853:855:859:871:872:875:883:904:919:948:952:958:975:994:1002:1010:1024:1027:1044:1065:1077:1080:1109:1128:1140:1141:1146:1154:1168:1170:1171:1188:1189:1197:1203:1219:1221:1224:1242:1249:1250:1253:1261:1264:1288:1289:1297:1299:1303:1313:1350:1357:1378:1379:1382:1386:1392:1401:1429:1439:1440:1447:1451:1469:1485:1493:1501:1509:1527:1530:1542:1545:1561:1581:1586:1596:1599:1631:1639:1699:1704:1766:1778:1788:1800:1814:1839:1843:1845:1850:1857:1861:1892:1895:1903:1913:1922:1932:1954:1973:1977 -1:671:1886:1015:1311:0:1637:1487:1765:34:1997:264:115:321:1985:201:1747:400:511:725:1611:644:1873:455:1986:555:102:996:600:1464:2086:747:1280:249:773:1001:1469:382:653:864:1615:1875:186:433:1122:1287:497:613:805:190:911:839:1028:104:1075:965:2088:308:889:441:803:1749:660:1054:854:384:542:1616:1289:614:802:926:1987:250:593:823:591:500:877:543:975:857:795:1102:1145:386:1472:310:738:916:1005:2100:501:1043:1216:1618:2089:1167:1238:1751:1140:1044:1193:1994:735:759:825:951:1345:623:1815:191:1443:985:1449:1507:251:711:1228:1267:1518:443:661:1131:1262:1381:97:796:879:1883:917:1229:1415:1338:1391:1876:1330:638:739:1138:1264:1045:1066:1340:1563:1732:311:1562:212:537:1128:1564:105:764:2079:1177:1247:1423:1602:202:1141:1402:1601:1620:979:1085:1591:99:710:904:1339:1417:1526:1546:177:444:615:898:978:1866:376:709:771:1252:1356:1364:1759:502:797:902:1086:1398:1409:2044:858:918:1007:1092:1093:1363:1519:1535:1625:1738:1752:1988:544:820:1112:1292:1392:188:192:594:765:953:1225:1515:1555:1877:375:616:952:980:1365:1416:1473:662:881:1201:1208:1295:1350:1926:2095:253:503:791:1067:1091:1135:1432:1438:1568:1573:1595:2090:790:892:937:1113:1161:1176:1296:1808:1837:193:387:627:640:663:793:880:1006:1087:1210:1227:1351:1368:1403:1482:1540:1621:1775:1807:1845:108:252:304:374:425:628:636:826:1008:1034:1200:1203:1393:1704:1802:254:314:393:550:595:766:987:1009:1013:1355:1439:1446:1583:1849:1858:1885:2091:2092:312:509:670:1068:1474:1670:1776:1816:1819:2017:2057:106:111:629:639:1094:1114:1179:1302:1427:1451:1457:1541:1569:1632:1679:1753:1800:1998:82:139:245:448:919:988:1040:1083:1155:1204:1511:1532:1598:1656:1708:1831:1856:1974:2024:2080:2083:84:377:380:391:423:446:675:740:1035:1081:1185:1269:1271:1279:1374:1419:1475:1739:1820:1829:1855:1871:1905:1912:1939:1942:2067:225:449:596:741:829:831:905:920:1050:1078:1079:1088:1108:1191:1352:1373:1426:1576:1596:1769:1798:1824:1834:1851:1941:1980:2016:2038:2043:2064:2189:168:545:630:882:936:939:972:1036:1136:1190:1211:1349:1377:1450:1550:1627:1658:1681:1688:1694:1703:1850:1857:1878:1916:1956:1995:66:80:223:266:429:445:457:495:504:553:582:588:618:631:655:744:748:767:770:786:849:873:874:906:915:921:938:942:1064:1101:1156:1186:1268:1447:1531:1559:1629:1663:1666:1734:1746:1787:1792:1799:1914:1920:1940:1947:1965:2018:2084:60:71:197:198:232:258:296:381:388:390:507:558:609:642:756:757:785:787:835:875:895:983:990:1111:1126:1133:1189:1273:1281:1282:1354:1418:1448:1542:1588:1630:1631:1665:1685:1702:1728:1735:1754:1782:1812:1817:1861:1868:1902:1934:1945:1999:2039:2040:2050:76:172:194:196:235:239:316:389:397:546:586:621:664:784:788:789:798:827:859:887:924:948:954:1000:1038:1069:1080:1129:1130:1132:1157:1180:1184:1257:1259:1270:1298:1319:1329:1411:1460:1512:1525:1529:1597:1603:1605:1606:1628:1659:1682:1689:1717:1724:1736:1790:1796:1827:1848:1898:1909:1913:1936:1946:1967:1977:1983:2008:2015:2023:2036:2041:2049:2051:2114:1:7:20:22:47:62:65:75:77:83:114:152:187:209:220:240:241:283:303:306:342:352:427:431:486:494:540:554:584:598:619:680:720:726:792:828:837:845:872:934:944:947:986:989:1020:1046:1072:1097:1099:1178:1182:1199:1205:1230:1277:1297:1331:1404:1420:1440:1453:1459:1462:1477:1483:1513:1551:1577:1582:1587:1589:1607:1683:1720:1722:1729:1760:1766:1794:1801:1805:1810:1842:1844:1933:1962:1968:2005:2019:2027:2030:5:15:35:56:81:155:158:171:179:199:238:270:318:332:346:347:359:395:438:461:489:513:525:585:587:599:617:626:649:651:681:693:705:721:761:836:862:888:899:909:922:925:932:943:962:971:1084:1095:1164:1165:1212:1214:1221:1223:1226:1244:1265:1272:1290:1333:1343:1434:1506:1520:1522:1534:1543:1552:1570:1608:1609:1617:1645:1657:1672:1673:1705:1710:1756:1781:1806:1813:1818:1841:1852:1867:1872:1908:1915:1957:1959:1969:1978:1996:2010:2014:2021:2026:2032:2042:2045:2047:2052:2056:2068:2071:2082:2085:2138:2200:2209:2225:21:24:31:42:48:52:57:59:70:79:89:92:93:96:116:118:121:131:136:141:154:167:169:175:178:195:204:222:242:244:247:263:265:279:281:284:290:292:294:295:298:326:343:370:398:407:411:412:416:430:436:439:450:462:487:488:512:514:534:560:580:583:620:625:633:676:689:694:698:700:708:714:737:755:768:799:809:817:860:869:876:886:907:908:955:959:960:963:970:994:1016:1041:1047:1070:1071:1073:1076:1115:1116:1137:1139:1147:1148:1158:1160:1166:1175:1195:1232:1233:1237:1253:1254:1274:1275:1283:1324:1336:1341:1353:1396:1399:1405:1424:1445:1463:1476:1495:1521:1533:1537:1549:1553:1560:1579:1581:1623:1633:1640:1644:1660:1667:1671:1677:1678:1733:1737:1744:1745:1786:1791:1809:1832:1836:1840:1847:1862:1865:1882:1889:1893:1894:1904:1906:1952:1961:1964:1971:1975:1976:1981:1984:1990:2000:2003:2013:2031:2046:2054:2070:2081:2096:2134:2140:2162:2175:2194:2260 -1:8:214:313:293:318:180:227:151:33:159:53:51:39:141:15:96:304:235:184:161:38:0:116:162:164:23:77:135:179:294:284:237:217:150:42:263:69:7:68:13:268:3:197:5:34:226:86:1:224:216:303:140:317:324:239:174:24:72:117:22:253:194:278:228:26:215:316:163:321:76:249:91:255:79:19:221:202:187:260:175:248:131:138:219:64:100:285:66:145:20:46:60:196:63:112:168:2:16:320:323:306:232:58:137:158:297:41:218:97:111:298:52:307:67:312:177:223:204:37:99:160:270:288:176:127:156:44:121:233:169:210:234:256:95:251:280:12:167:244:265:190:147:186:271:225:300:212:292:322:200:247:290:144:166:113:93:276:65:154:25:55:123:198:243:49:191:78:84:88:157:301:82:181:229:295:309:314:43:262:283:118:80:109:240:291:319:6:231:14:85:170:282:129:133:259:220:245:269:59:74:92:266:142:274:30:201:18:94:107:119:130:287:315:126:199:258:286:104:105:136:139:222:10:75:149:173:54:106:178:250:108:302:21:57:172:236:310:114:171:211:213:273:35:81:89:305:73:185:189:155:230:261:289:277:32:125:183:206:124:47:148:192:11:238:254:70:62:98:242:279:311:17:40:134:205:48:71:146:182 -1:2:0 [1:30] -1:2:1:0:4:3 [10:500] [0.20000000000000001:380] [1:150] [-15:350] [0:4] [0:4] [1:6] [0:4] [0:6] -1:1:2:0:3 [1785:2027] -1:5:4:2:1:7:0:3:6 -1:0:5:4:2:1 [0:1] [1:62] [0:29] [0:36] none -1:44:60:6:77:22:33:80:43:62:82:70:4:51:12:3:28:84:36:71:73:76:47:66:83:24:78:45:85:46:34:15:54:50:37:18:59:56:11:30:10:26:25:57:67:32:89:8:14:19:29:69:79:1:9:17:68:74:21:48:49:63:64:75:81:88:91 -1:2:5:6:4:0:1:3 -1:3:2:1 [0:1] none none none none -1:1:2 none [1:75000000] [1:11] none [0:100] [0:100] -1:65:190:129:35:125:66:100:122:12:31:71:134:151:229:145:126:178:148:197:5:115:111:261:27:88:166:52:53:185:127:32:40:56:105:75:72:144:108:273:61:258:171:152:0:121:123:51:60:253:77:220:63:74:204:275:103:264:119:15:6:160:214:25:174:232:244:269:173:33:54:83:110:48:113:118:41:47:59:104:198:202:3:20:24:196:225:1:9:19:23:107:156:38:89:7:13:29:50:109:17:37:73:97:114:140:207:256:128:142:159:162:219:243:274:2:93:138:205:213:215:223:249:276:4:21:43:62:139:147:177:235:8:22:44:49:91:98:136:195:246:255:257:260:263:265:14:36:45:55:90:96:124:182:230:234:259:262:57:79:106:116:120:149:164:180:193:228:240:278:67:68:84:117:157:161:165:168:170:172:184:189:209:222:236:254:266:271 [0:6057] [0:5] [0:18671] [1921:2022] none [143.31210191082803:19230.76923076923] [0:240] none none none [1:30] -1:0:82:112:84:77:26:113:123:110:52:108:120:7:59:103:24:25:55:80:119:67:102:75:63:48:60:115:45:76:31:8:118:66:44:99:37:109:30:29:86:107:22:72:5:15:64:104:6:32:11:1:111:114:13:4:97:2:106:18:89:10:83:93:27:47:74:53:91:126:38:105:41:54:16:124:58:65:78:87:81:35:3:70:121:49:57:62:122:28:23:92:9:101:40:51:34:73:98:96:125:117:50:116:90:61:85:43:42:69:79:39:94:19:33:20:14:71:12:88:56:46:100:95:36:17:68 none [1:30] [0:1] -1:3:1:2:0 [0.5:15] [1:12] [0:6] [0:1] [-1:1] [-1:1] [-0.97492791218182362:0.97492791218182362] [-0.90096886790241903:1] -1:4:0:2:1 [1:4] [-0.25:1] [0:1] [0:1] [0:1] -1:0:2:1 -1:15:12:18:8:20:0:17:5:14:6:2:3:9:1:7:16:11:13:19:23:4 [-0.66666666666666663:1] -1:1:2:0 [0:4] [73206.545395421432:504584.57899022801] none [100:250000] [1:36] [1:22500] [10:3000] [6.1799999999999997:175000] [12:46500] [0.0064724919093850997:1] [0.010752688172042999:1] -1:17441:7298:15507:2220:14724:12968:12978:10132:12951:15494:16666:2210:12969:5407:15481:2189:7310:7323:10121:12912:12949:75:2237:10103:10106:12902:12945:14743:3067:5457:10134:12941:12961:14336:39:2180:2207:2213:2214:3267:4782:7258:10066:10098:10101:12938:12944:13955:14325:928:2201:2263:3094:4514:4519:5404:5444:7307:7327:10091:11424:11518:12905:12917:12964:13633:13864:14746:14760:3:12:463:2179:2183:2196:2205:2244:3286:4550:4569:4706:4718:5410:5437:7248:7260:7264:7270:7286:7302:9221:10061:10110:10137:10614:12012:12901:12907:12927:12947:14744:14766:15055:15506:15810:16010:16016:16211:16619:758:908:1688:2181:2195:2265:2267:3069:3317:3329:3803:3805:3809:4215:4528:4562:5371:5395:5411:5422:5454:6433:6934:7267:7280:7301:7328:8112:9226:9480:10046:10068:10085:10087:10104:10127:10129:10131:10140:11076:11556:11673:11717:12144:12898:12900:12929:13650:13847:14057:14317:14334:14739:14748:14761:14926:15477:15496:16492:4:36:60:74:1205:2043:2177:2184:2187:2198:2218:2226:2229:2249:2595:3052:3079:3106:3273:3303:3311:3341:3448:4503:4505:4518:4540:4567:5380:5381:5382:5386:5412:5445:5452:5460:5462:5852:5862:6423:6449:6455:7230:7233:7249:7251:7257:7262:7273:7289:7295:7315:7320:7321:7326:7334:8092:8382:9065:9075:9209:9231:10067:10079:10095:10107:10108:10116:10122:10126:10128:10138:10766:11205:11532:11533:11546:11693:11703:12122:12478:12490:12542:12729:12915:12931:12966:12967:12971:12974:13857:13927:13960:14055:14337:14757:14883:15237:15476:15815:15893:16094:16217:16318:16325:16386:16539:2:22:26:43:45:46:57:67:77:306:742:750:762:769:805:897:906:1013:1160:1163:1184:1484:1499:1507:1509:1655:1847:1914:1915:1988:2191:2202:2206:2212:2216:2222:2223:2227:2230:2252:2255:2257:2258:2260:2585:2594:2644:2681:3037:3073:3088:3107:3261:3277:3280:3285:3295:3296:3302:3325:3328:3333:3338:3339:3656:3663:3804:3810:3980:3992:4027:4489:4506:4526:4536:4549:4697:4726:4729:4742:4780:4784:4796:4803:4903:5093:5126:5310:5383:5387:5391:5394:5418:5424:5433:5440:5447:5448:5451:5575:5577:5855:5891:6092:6176:6177:6217:6410:6443:6457:6796:6882:6891:6903:6905:6922:6964:7229:7238:7240:7243:7247:7275:7276:7284:7297:7309:7313:7319:7322:7330:7679:7713:7750:7788:8073:8097:8111:8135:8365:8586:8736:8830:9192:9202:9295:9597:9925:10049:10050:10051:10062:10063:10080:10081:10089:10090:10111:10136:10254:10485:10616:10620:10622:10624:10632:11032:11034:11058:11061:11075:11504:11506:11528:11536:11639:11723:11843:11908:12005:12141:12146:12337:12502:12930:12942:12954:12957:12960:12965:13143:13210:13577:13630:13925:13947:14048:14138:14149:14322:14403:14418:14579:14614:14718:14731:14752:14977:15041:15065:15067:15130:15158:15292:15499:15502:15505:15510:15568:15637:15721:15805:15811:15816:15894:15927:16017:16091:16201:16202:16213:16293:16446:16667:21:23:25:31:33:56:63:68:78:139:258:296:312:316:451:491:530:538:540:544:554:602:678:715:761:773:780:789:797:798:892:931:1065:1081:1161:1166:1180:1193:1260:1269:1297:1318:1464:1475:1482:1483:1491:1561:1562:1567:1572:1633:1636:1649:1651:1656:1712:1793:1794:1845:1940:1941:1987:2089:2185:2192:2193:2194:2199:2204:2208:2219:2221:2232:2247:2259:2266:2268:2340:2415:2458:2461:2462:2476:2569:2576:2583:2586:2593:2647:2660:2669:2678:2682:2685:2688:2792:2812:2896:2972:2978:3035:3047:3056:3071:3077:3084:3090:3103:3105:3258:3262:3269:3278:3294:3298:3320:3326:3330:3411:3456:3493:3515:3522:3630:3640:3641:3645:3653:3661:3685:3780:3791:3816:3820:3822:3824:3829:3834:3841:3942:3977:3982:3985:3989:3991:4009:4022:4100:4134:4139:4141:4149:4244:4281:4299:4392:4417:4473:4490:4492:4494:4495:4497:4499:4527:4533:4541:4547:4552:4565:4579:4701:4723:4738:4739:4745:4773:4787:4791:4808:4861:4869:4884:4887:4900:4909:4957:4996:4997:5100:5112:5199:5274:5278:5375:5378:5379:5384:5388:5389:5392:5396:5400:5405:5413:5426:5428:5432:5434:5441:5442:5443:5446:5453:5456:5459:5466:5468:5535:5539:5581:5583:5590:5594:5616:5620:5853:5864:5866:5883:5884:5997:6080:6102:6103:6104:6105:6108:6121:6130:6167:6179:6196:6203:6212:6289:6295:6304:6310:6315:6316:6324:6396:6404:6413:6419:6421:6428:6657:6660:6666:6667:6668:6765:6777:6850:6864:6871:6872:6874:6881:6886:6894:6895:6907:6915:6917:6973:6997:7072:7231:7235:7236:7256:7266:7271:7274:7277:7281:7282:7285:7290:7291:7293:7306:7308:7312:7331:7485:7550:7559:7673:7696:7700:7702:7732:7735:7738:7751:7753:7756:7760:7763:7766:7782:7784:7790:7837:7877:8042:8082:8089:8091:8095:8105:8108:8117:8129:8178:8239:8260:8322:8350:8356:8372:8379:8385:8388:8412:8422:8424:8437:8444:8446:8572:8591:8691:8702:8718:8722:8823:8837:8845:8857:8889:8890:8898:8923:8925:9003:9040:9047:9050:9054:9055:9070:9136:9184:9195:9196:9200:9203:9204:9208:9215:9220:9222:9223:9227:9299:9312:9316:9399:9425:9429:9570:9573:9731:9760:9764:9853:9930:10054:10073:10074:10075:10099:10105:10118:10123:10226:10285:10355:10417:10422:10448:10466:10525:10621:10636:10769:10775:10777:10779:10899:10929:10967:11023:11024:11025:11044:11050:11056:11065:11071:11080:11178:11187:11261:11309:11349:11397:11411:11501:11516:11521:11544:11550:11568:11617:11677:11679:11702:11751:11831:11872:11887:11888:11890:11892:11900:11906:11927:11969:11973:11975:11978:11989:12024:12037:12095:12115:12128:12129:12150:12167:12243:12244:12329:12355:12356:12488:12491:12505:12506:12532:12575:12596:12626:12636:12645:12679:12707:12737:12798:12895:12896:12911:12914:12916:12926:12953:12973:13205:13257:13319:13336:13355:13384:13427:13437:13485:13536:13556:13609:13620:13625:13646:13707:13721:13733:13734:13792:13846:13855:13861:13862:13863:13922:13926:13936:13938:13939:13941:13943:14040:14046:14058:14059:14128:14150:14158:14170:14184:14224:14255:14267:14309:14310:14318:14329:14332:14425:14434:14447:14463:14506:14507:14529:14616:14721:14734:14736:14749:14754:14759:14821:14933:14959:15014:15019:15022:15042:15063:15123:15233:15289:15295:15313:15335:15355:15374:15484:15486:15612:15642:15719:15735:15738:15785:15795:15813:15895:15922:15965:16015:16019:16055:16154:16169:16204:16215:16278:16295:16326:16339:16355:16411:16412:16436:16537:16563:16653:16664:16665:16668:16807:16943 -1:5643:1679:2434:1262:595:3354:597:3353:2433:0:1074:1076:1677:818:1260:4036:816:773:4369:1878:2164:2:240:1574:2729:930:775:1468:1678:1791:1121:2865:426:3873:690:928:271:898:968:1362:352:1123:2432:3614:2036:2920:896:2728:1115:1421:1942:1957:680:1444:1466:1113:1297:2613:3728:2864:4172:1446:1516:2122:468:1360:1409:273:354:2092:1261:4037:2921:682:970:1145:1185:524:3729:3797:2316:4490:145:466:1000:1783:1789:3179:3180:4743:384:1002:1423:3064:4638:386:441:475:861:1050:1386:1991:3764:4370:4527:98:242:1016:1572:2006:2612:147:320:1299:3065:3615:1187:1877:2162:2163:2960:622:654:656:758:1202:1569:1990:2269:2697:5032:428:1029:1911:2073:2091:2226:2654:3695:4808:692:756:1407:1514:1573:2382:3145:498:526:596:793:1384:2830:2831:2959:194:322:817:1290:1800:2374:2696:3874:4301:721:1027:1167:1755:1891:2071:2112:2770:2980:3019:3696:443:958:1862:2035:2120:2192:2556:2653:3460:301:712:848:989:1557:1583:1932:2121:2241:2991:217:404:509:549:740:987:1075:1234:1319:1333:1478:1515:1781:1978:2780:3511:3559:4118:100:178:196:672:699:730:1018:1110:1212:1335:1774:1802:1813:1956:2034:2268:2483:2727:2807:3020:3104:3105:3144:3352:3970:4250:159:215:551:952:1226:1317:1377:1483:1605:1768:2494:2762:2769:2981:3765:374:534:941:1210:1224:1399:1408:1549:1567:1587:1760:1876:1941:2072:2200:2677:2690:2779:2863:3127:3138:3257:3512:3798:3917:4568:5389:863:939:1164:1329:1496:1547:1559:1782:1850:2225:2475:2806:3087:3139:3233:3461:3910:3941:4201:4302:4546:5539:303:312:420:511:691:752:836:871:1038:1153:1658:1790:2555:3194:3234:3651:3671:3845:3911:4213:58:185:289:406:485:494:519:521:566:705:723:732:788:794:1036:1048:1130:1135:1143:1833:1910:1955:2062:2090:2267:2294:2372:2611:2668:3088:3523:3560:3600:4159:4585:4680:27:176:329:402:422:486:500:645:742:841:1011:1034:1114:1165:1200:1375:1415:1467:1693:1726:1832:1924:2099:2105:2111:2219:2388:2524:2640:2652:2905:2934:3128:3237:3238:3258:3541:4309:5585:3:86:88:229:241:436:504:624:729:831:838:897:910:923:929:1067:1151:1307:1361:1422:1456:1486:1508:1602:1754:1848:1849:1889:2190:2254:2381:2474:2510:2580:2581:2646:2688:2805:3005:3053:3207:3584:3629:3753:3781:3816:3922:3946:3993:4139:4232:4849:4864:5567:1:40:84:113:161:331:369:395:455:492:635:643:714:781:796:917:969:1032:1108:1186:1327:1393:1494:1589:1829:1898:1909:1989:2129:2191:2199:2702:2990:3000:3006:3118:3476:3487:3623:3672:4065:4173:4189:4280:4348:4663:77:129:136:171:211:224:257:260:293:370:376:397:544:633:647:666:674:689:703:735:842:850:878:916:919:1013:1042:1069:1137:1175:1284:1288:1433:1445:1453:1462:1531:1536:1548:1552:1660:1727:1820:1940:1976:2005:2179:2373:2523:2689:2787:2841:2919:3121:3193:3216:3217:3226:3249:3445:3500:3542:3664:3681:3817:3892:3903:3984:4096:4097:4119:4264:4418:4463:4639:4730:4744:4883:4897:4925:28:33:78:138:201:202:204:220:282:295:314:347:358:427:457:536:550:557:572:668:763:774:786:799:889:908:1053:1083:1096:1097:1098:1105:1107:1128:1201:1285:1397:1440:1528:1581:1586:1600:1604:1610:1656:1735:1763:1766:1885:1930:2218:2224:2239:2248:2277:2286:2292:2346:2356:2536:2701:2739:2745:2768:2793:2794:2847:2942:3166:3788:3923:4061:4202:4430:4444:4491:4593:4717:4792:4913:5461:5529:5600:37:53:108:115:163:212:248:272:321:390:453:467:477:488:506:513:531:560:563:569:570:717:760:798:846:857:947:1021:1045:1065:1122:1132:1166:1172:1173:1178:1181:1194:1197:1225:1241:1289:1306:1337:1346:1347:1405:1506:1534:1617:1632:1641:1695:1741:1743:1819:1861:1962:2004:2014:2067:2146:2152:2198:2285:2313:2315:2329:2345:2355:2361:2380:2395:2492:2591:2632:2636:2667:2751:2761:2851:2911:2979:3043:3117:3165:3266:3413:3429:3434:3446:3510:3522:3549:3589:3652:3665:3709:3727:3846:3896:3918:3942:3985:4072:4140:4294:4406:4435:4493:4519:4561:4569:4962:5173:5444:5510:5540:19:41:92:120:125:154:165:173:230:250:252:287:291:391:394:458:479:481:499:542:568:580:598:612:621:625:641:662:669:725:731:745:747:750:762:768:791:819:835:845:880:881:905:934:935:960:999:1001:1043:1140:1176:1189:1211:1221:1300:1380:1435:1438:1459:1476:1488:1497:1582:1591:1635:1692:1694:1715:1724:1728:1753:1767:1805:1811:1812:1827:1929:1949:2206:2212:2233:2236:2240:2256:2331:2332:2349:2362:2384:2420:2438:2482:2503:2521:2522:2526:2537:2541:2546:2570:2660:2711:2746:2752:2799:2822:2829:2840:2894:2943:3052:3063:3079:3110:3143:3438:3470:3477:3499:3576:3585:3601:3637:3774:3831:3842:3953:3971:4058:4082:4149:4220:4242:4290:4333:4337:4340:4368:4528:4631:4875:4886:4935:4958:5000:5435:5568:5604:24:39:81:89:109:130:135:186:190:192:193:225:243:253:258:343:361:403:405:410:415:417:460:501:515:529:530:533:547:555:606:637:639:649:651:660:686:687:708:738:766:802:803:806:826:829:843:855:869:877:888:890:893:914:951:982:988:992:993:996:1003:1014:1020:1028:1066:1091:1120:1133:1144:1158:1162:1177:1195:1198:1199:1216:1232:1279:1281:1282:1298:1323:1364:1376:1378:1385:1388:1400:1403:1413:1430:1450:1452:1454:1481:1540:1601:1603:1613:1620:1622:1663:1684:1698:1709:1725:1734:1771:1772:1788:1801:1804:1809:1816:1847:1916:1919:1977:2016:2025:2051:2060:2128:2133:2173:2186:2187:2253:2274:2293:2300:2303:2325:2335:2366:2376:2387:2397:2459:2509:2544:2550:2554:2562:2631:2645:2682:2695:2708:2712:2738:2741:2802:2810:2814:2848:2885:2895:2904:2935:2950:2951:2958:2967:2970:2999:3042:3078:3111:3160:3211:3225:3245:3268:3276:3283:3288:3295:3327:3395:3407:3430:3437:3469:3479:3535:3575:3597:3668:3713:3784:3830:3833:3837:3850:3904:3933:3944:4007:4100:4107:4134:4190:4251:4273:4289:4398:4483:4618:4657:4704:4722:4735:4769:4829:4841:4945:5145:5263:5319:5414:5471:5473:5495:5502:5511:5564:5586:5608:5614:47:60:71:111:127:140:146:156:231:251:261:263:268:309:336:345:362:365:373:383:388:431:432:435:442:454:502:517:537:540:556:565:577:581:593:604:605:607:614:634:655:664:678:679:698:726:739:751:757:780:783:837:851:853:872:874:886:891:900:903:920:944:955:957:984:986:1015:1019:1023:1046:1058:1082:1148:1160:1171:1182:1190:1192:1193:1203:1206:1229:1233:1240:1245:1283:1286:1291:1305:1310:1318:1339:1343:1350:1365:1391:1414:1429:1434:1443:1451:1475:1502:1507:1529:1533:1578:1593:1594:1619:1625:1627:1639:1648:1650:1652:1653:1680:1705:1708:1710:1712:1718:1733:1738:1759:1778:1818:1824:1845:1853:1859:1860:1883:1890:1896:1900:1923:1931:1960:1970:1988:1999:2008:2022:2050:2058:2080:2097:2098:2104:2110:2114:2127:2131:2139:2141:2145:2160:2185:2209:2221:2243:2247:2279:2299:2306:2308:2314:2330:2340:2368:2403:2444:2463:2468:2471:2493:2512:2517:2529:2533:2534:2538:2547:2548:2551:2563:2585:2590:2593:2594:2606:2627:2637:2643:2650:2659:2662:2666:2671:2679:2722:2734:2748:2749:2823:2836:2854:2868:2874:2876:2883:2893:2899:2912:2930:2955:2971:3011:3022:3030:3040:3051:3086:3093:3095:3120:3157:3164:3172:3191:3206:3215:3219:3242:3244:3250:3267:3290:3304:3397:3409:3410:3424:3435:3440:3454:3471:3489:3491:3536:3564:3630:3661:3684:3685:3737:3745:3747:3782:3805:3855:3893:3925:3961:3972:3978:3988:4001:4008:4015:4022:4035:4066:4089:4214:4261:4380:4457:4464:4514:4547:4575:4578:4652:4660:4681:4691:4763:4946:4967:4978:5027:5034:5354:5358:5448:5463:5493:5504:5507:5531:5549:5556:5560:14:15:17:21:43:45:55:73:94:99:122:149:150:152:168:174:177:183:188:199:205:206:207:216:222:235:245:249:254:255:284:298:310:311:316:317:324:325:341:353:355:372:381:385:393:425:438:448:450:469:480:489:495:507:510:520:522:525:528:548:558:559:562:575:578:583:584:585:591:609:611:613:616:618:619:628:658:659:673:681:683:697:701:715:716:718:719:722:727:728:734:741:743:748:755:759:764:790:792:804:809:824:828:847:854:858:859:867:883:884:906:922:924:925:931:933:945:950:962:972:974:981:983:995:998:1005:1006:1017:1031:1040:1049:1051:1054:1056:1057:1062:1063:1070:1077:1079:1084:1100:1134:1146:1147:1152:1154:1170:1179:1215:1218:1220:1223:1236:1239:1243:1248:1257:1267:1268:1273:1277:1280:1292:1294:1309:1312:1321:1326:1328:1342:1344:1348:1349:1352:1357:1359:1369:1370:1371:1372:1373:1374:1390:1392:1398:1402:1412:1416:1417:1428:1457:1460:1469:1477:1487:1495:1503:1505:1510:1511:1513:1519:1523:1535:1537:1553:1554:1579:1588:1595:1599:1611:1612:1621:1624:1645:1668:1697:1703:1707:1711:1714:1717:1723:1746:1747:1749:1761:1765:1773:1775:1776:1777:1794:1806:1826:1828:1830:1831:1838:1839:1867:1871:1884:1887:1905:1907:1908:1913:1922:1925:1934:1938:1948:1954:1980:1983:1985:2020:2031:2045:2049:2086:2094:2095:2103:2106:2113:2115:2143:2148:2150:2153:2154:2156:2169:2177:2181:2184:2202:2211:2214:2217:2234:2237:2244:2246:2252:2255:2263:2264:2273:2278:2284:2288:2309:2341:2344:2364:2385:2393:2405:2406:2417:2423:2440:2443:2448:2449:2450:2467:2470:2486:2519:2528:2530:2558:2559:2564:2569:2572:2575:2584:2597:2598:2599:2601:2607:2608:2610:2615:2617:2619:2621:2634:2658:2663:2676:2686:2687:2693:2694:2703:2706:2710:2717:2718:2735:2742:2743:2757:2759:2767:2773:2776:2786:2804:2835:2844:2845:2846:2853:2860:2872:2897:2928:2932:2941:2944:2966:2972:2994:3002:3004:3034:3035:3039:3048:3049:3055:3070:3099:3102:3103:3112:3141:3150:3153:3162:3168:3169:3178:3182:3202:3212:3232:3236:3273:3281:3293:3298:3303:3306:3313:3314:3320:3355:3372:3379:3382:3384:3391:3399:3404:3414:3416:3453:3464:3465:3466:3475:3480:3481:3490:3501:3515:3527:3531:3533:3546:3558:3566:3570:3571:3572:3581:3588:3590:3591:3595:3606:3613:3624:3625:3640:3641:3659:3669:3682:3693:3694:3697:3711:3715:3722:3730:3732:3738:3754:3757:3761:3771:3779:3783:3803:3807:3810:3812:3840:3843:3851:3865:3872:3891:3895:3898:3906:3926:3950:3989:4004:4009:4018:4025:4038:4048:4056:4083:4086:4099:4104:4111:4122:4132:4154:4160:4176:4180:4184:4187:4194:4207:4231:4233:4238:4243:4256:4265:4281:4304:4316:4318:4325:4357:4358:4364:4394:4403:4419:4424:4427:4467:4471:4480:4497:4511:4517:4535:4553:4560:4576:4594:4607:4624:4647:4671:4696:4711:4713:4725:4757:4771:4774:4778:4781:4782:4784:4789:4796:4805:4821:4823:4859:4865:4868:4881:4908:4964:4981:4989:5001:5010:5028:5033:5044:5053:5060:5064:5077:5083:5086:5094:5103:5110:5117:5159:5234:5260:5270:5300:5301:5308:5314:5317:5345:5353:5370:5400:5415:5430:5474:5479:5505:5514:5516:5520:5522:5548:5554:5555:5574:5575:5577:5580:5582:5591:5605:5617:5619:5629:5637 -1:704:462:449:451:460:430:497:428:495:475:461:437:560:456:454:444:275:406:415:435:404:413:520:422:450:496:540:473:559:383:484:429:489:534:274:474:487:442:420:470:526:519:528:552:382:536:599:580:544:381:558:501:340:499:405:436:483:509:339:538:505:600:414:443:518:306:579:469:482:548:550:393:488:329:395:539:637:455:421:468:638:318:542:620:532:568:619:576:328:291:508:524:348:358:507:535:543:503:530:305:500:367:522:347:556:674:504:527:546:567:357:578:1:531:547:317:572:236:273:368:564:566:618:655:592:373:394:608:523:551:631:65:554:575:624:574:591:675:338:2:35:144:571:94:607:616:583:623:290:588:656:598:119:615:515:587:254:372:78:195:570:636:645:660:630:36:555:659:690:66:563:584:304:366:514:596:171:595:603:606:16:234:371:498:604:611:612:145:235:253:586:49:327:644:652:513:346:562:590:622:628:168:316:666:691:8:218:356:680:699:42:216:614:662:194:627:629:634:648:50:92:610:681:693:5:106:172:197:653:687:167:215:431:642:654:0:27:103:129:582:73:117:120:214:255:457:635:641:677:9:95:193:238:289:452:490:671:688:696:700:6:17:80:256:463:658:670:19:142:294:295:423:438:485:521:537:545:626:649:673:10:23:107:131:166:351:407:416:476:594:643:684:68:75:108:141:211:219:331:384:663:685:702:28:79:91:100:140:198:239:308:375:529:602:633:667:694:698:13:53:56:70:74:90:110:124:155:157:226:252:320:408:445:502:506:553:581:621:640:647:44:46:48:60:62:76:83:86:99:122:130:136:138:150:152:162:183:184:190:217:227:228:229:299:332:549:625:651:3:11:15:30:40:43:54:58:71:93:125:127:132:134:151:163:179:181:201:206:225:243:251:277:309:410:417:426:517:541:557:561:569:593:661:678:697:4:7:14:20:24:31:32:33:34:39:45:47:52:55:59:72:81:89:102:109:112:115:121:135:137:149:159:160:161:164:174:175:177:185:188:192:199:200:203:204:205:210:232:233:250:257:281:285:311:319:342:376:379:385:398:425:446:471:516:525:573:585:589:601:665:683:695 -1:998:631:645:644:638:689:642:603:604:630:398:582:612:747:784:567:611:688:628:661:735:662:686:599:620:590:783:685:581:659:600:538:753:720:781:568:591:671:626:641:679:619:485:637:723:684:541:696:640:772:607:722:759:437:601:654:678:780:563:658:617:741:454:812:609:469:539:695:564:669:652:845:815:752:578:675:627:670:551:749:676:635:729:765:588:706:734:750:847:701:719:746:672:771:579:655:778:508:589:744:615:758:608:755:396:495:808:520:577:844:900:707:756:873:793:814:876:633:704:657:699:766:483:565:795:899:417:693:763:553:903:542:700:768:875:954:674:769:703:732:743:883:467:616:651:740:796:2:698:731:692:811:554:726:728:738:848:872:634:902:802:762:801:807:587:399:493:506:831:833:88:931:525:714:799:857:892:518:552:777:805:527:933:880:718:792:826:870:953:46:452:824:416:787:343:889:1:435:550:838:858:859:395:691:211:482:697:868:891:702:789:790:853:210:820:856:129:804:830:869:882:930:936:45:372:486:643:737:776:818:852:912:962:976:4:170:248:712:823:887:956:87:817:834:864:879:894:434:470:650:821:935:505:537:840:13:107:172:438:517:668:730:748:786:810:827:861:888:914:938:496:509:528:715:725:775:865:925:971:8:99:213:346:742:867:941:945:959:982:24:25:38:68:106:344:660:711:886:934:48:66:455:803:862:885:911:927:975:993:55:131:249:284:418:629:782:798:915:957:978:5:65:128:148:169:318:347:370:521:754:779:837:896:918:990:991:12:18:27:30:54:90:123:147:244:247:282:313:451:466:540:846:908:909:946:986:104:111:245:280:283:315:317:320:353:374:375:492:524:906:920:924:949:966:7:22:34:35:49:108:136:145:186:319:415:724:854:871:928:987:40:67:71:74:92:96:132:152:212:314:369:420:421:484:618:653:687:710:767:841:851:897:905:921:939:948:961:963:970:981:983:996:10:53:69:81:89:103:130:153:164:171:179:185:205:219:246:267:316:368:373:377:423:471:497:677:727:733:745:761:764:843:917:943:968:979:3:9:37:58:63:72:86:93:101:113:117:126:134:137:139:143:149:183:189:194:200:206:208:225:236:250:251:253:266:281:285:287:297:331:334:392:394:402:441:444:481:531:566:594:602:636:705:739:757:770:791:800:860:884:893:940:942:944:950:964:973:0:16:17:29:32:39:47:52:56:57:61:70:75:77:78:91:95:98:110:124:146:155:156:174:181:188:190:193:214:218:224:231:234:265:272:286:294:300:310:328:330:332:333:335:350:351:397:404:436:453:468:472:473:474:488:494:519:532:544:569:610:639:716:721:736:794:797:813:822:825:832:866:874:901:910:932:937:958:977:994 [-56:19000] [1:380] [19590:1009500] none none
tree_sizes=2704 2899 2844 2896 2837 2854 2941 2906 2899 2909 2934 2832 2846 2983 2990 2917 2944 2863 2977 2862 2890 2975 2896 2909 2913 2913 2900 2990 2920 2937 2930 2939 2935 2906 2926 3028 3191 3065 2921 3146 3165 3016 3493 3297 3305 3635 3836 4116 3510 3766 2245 3285 3866 3927 4071 4339 3565 4420 3935 3565 3722 3936 3455 4083 3724 3203 3427 3753 3608 3747 3972 3986 4456 3640 4103 2495 4103 3223 2224 3365 4064 3501 3211 3674 4341 3571 3460 3885 3505 3146 2842 4422 3628 2357 3747 3107 4200 3448 3769 2733 3484 4902 3729 3902 2300 4335 3563 4770 4312 2254 2675 3821 3931 4107 3245 2764 3014 3537 2613 3893 4806 3011 3787 3531 3547 3668 3893 3288 2579 3403 2091 3395 4254 3303 2611 4046 3734 3697 2879 4025 3702 3511 4135 3216 3442 3956 3731 4392 3467 2875 4079 3107 3338 4055 2987 2823 3814 3904 4478 3025 4028 3138 4343 3552 3923 2452 3899 3781 4406 4531 4179 3778 4257 4137 4167 4098 2212 4083 4348 3371 2735 4715 3994 3696 3962 4591 2822 3158 4089 4025 2860 2543 4194 3359 3305 4549 4415 3626 4006 3855 2925 1672 3664 3125 3775 4897 4380 4105 3910 2384 2693 3160 4196 3014 4429 2935 3957 3902 4265 3450 4194 4135 4160 4941 3578 3704 4626 4150 3946 2111 4549 4195 1506 3887 4000 4681 4605 4172 4093 4986 4463 4005 4020 4057 3407 4015 4510 4052 4399 3876 4171 4520 3411 3973 4046 4649 4084 2498 3806 4649 1680 3803 4211 4696 3883 4122 4590 4215 4506 3451 3869 3674 3977 4504 4518 3827 2558 4166 3162 2271 4381 4675 2522 4614 3870 4653 3576 3970 4270 4089 4453 4588 4204 4008 4244 4259 2862 3859 3993 4571 4406 4680 4153 4305 4187 3821 4425 4231 4375 4645 4263 4431 3233 4261 4240 4274 4391 4482 4645 4292 4072 5062 4302 4137 2451 4753 4154 4433 3951 4221 4256 4380 4593 4022 4320 3597 3785 3659 4171 4470 4585 4004 3514 3619 4319 4347 4197 4231 4519 4318 3696 4891 4545 4466 4286 4571 4519 4382 4944 4120 1520 4074 4513 4516 4456 4193 4386 3902 4646 5411 4697 4651 4157 4576 3906 4329 4749 4476 2158 4377 5005 5094 4744 4526 4443 4324 5045 4730 4462 4156 3807 4449 882 3538 4672 4363 4166 3932 3872 4152 4522 4353 3012 4078 4686 4404 4276 4168 3215 4226 4019 4046 4337 4634 2889 3380 3959 4665 4268 4052 4561 4437 5035 4180 2027 4962 4492 4946 4655 3533 4607 4215 4017 4455 4730 1711 4090 3554 4492 4139 3240 3757 4751 4510 4598 2194 4074 4188 4664 1605 4278 4542 4455 3963 4792 4408 4958 4392 4701 4080 4370 4481 4437 4423 3226 4291 4442 4537 4633 4453 4880 4566 4191 4002 4688 4474 4111 4499 4677 3293 3626 4430 3846 4773 3841 4738 4059 3747 4566 3684 4037 5090 3762 4753 5101 4452 4756 3733 3897 5048

Tree=0
num_leaves=31
num_cat=0
split_feature=41 41 41 41 82 41 41 41 87 41 41 52 52 41 98 41 52 13 41 87 41 13 52 41 52 13 13 98 87 41
split_gain=6026.43 1061.01 1042.78 207.56 211.361 176.86 153.689 113.232 50.7273 36.7854 34.908 30.9642 29.9534 26.8578 24.1192 23.0729 20.049 29.5326 20.0387 18.8716 16.4413 13.9337 20.3404 8.0226 7.59148 7.25115 6.87811 5.57003 5.35406 5.23509
threshold=125468.50000000001 68500.000000000015 302500.00000000006 87150.000000000015 292390.78292806301 710000.00000000012 186500.00000000003 49999.500000000007 91.100000000000009 452500.00000000006 58250.000000000007 813.02966101694926 1499.9833333333336 99999.500000000015 161298.90000000002 1595000.0000000002 1406.4498081841434 31.950000000000003 232500.00000000003 201.06000000000003 151300.00000000003 74.950000000000017 4529.6861237889352 110400.00000000001 1002.5125628140705 63.850000000000001 30.050000000000004 121082.50000000001 111.30000000000003 1125000.0000000002
decision_type=2 2 2 2 2 2 2 2 2 2 2 2 2 2 2 2 2 2 2 2 2 2 2 2 2 2 2 2 2 2
left_child=1 7 6 4 11 9 20 8 16 -4 19 27 24 -5 -13 29 26 -18 -8 28 -2 -6 -23 -15 -10 -14 -1 -3 -9 -7
right_child=2 3 5 13 21 15 18 10 12 -11 -12 14 25 23 -16 -17 17 -19 -20 -21 -22 22 -24 -25 -26 -27 -28 -29 -30 -31
leaf_value=11.256239193940983 11.395844010425074 11.220106028251994 11.493456069984431 11.354100227282277 11.42270522242776 11.577000344668894 11.434515558165719 11.300576543964477 11.290405457254845 11.533317927688003 11.315945850887205 11.333549702870719 11.35986138908798 11.367516660631692 11.382573335941176 11.662757388515313 11.284180308521366 11.316232845099989 11.45948562875664 11.370494749819775 11.414572950801203 11.479170839873989 11.601699046840807 11.379633447208194 11.322466441455223 11.429112635716622 11.279213128188596 11.286003340138553 11.318452241220131 11.614098449220796
leaf_weight=140 1300 23 662 1290 20 159 655 3492 130 356 3660 6234 54 1447 102 48 1035 398 631 40 733 42 20 878 171 21 1884 29 176 50
leaf_count=140 1300 23 662 1290 20 159 655 3492 130 356 3660 6234 54 1447 102 48 1035 398 631 40 733 42 20 878 171 21 1884 29 176 50
internal_value=11.3454 11.323 11.4492 11.3465 11.3358 11.5261 11.4197 11.3018 11.2878 11.5074 11.309 11.3337 11.3227 11.3657 11.3343 11.6002 11.284 11.2931 11.4468 11.3022 11.4026 11.4953 11.5187 11.3721 11.3086 11.3793 11.2776 11.2569 11.3014 11.5859
internal_weight=0 21286 4594 10085 6470 1275 3319 11201 3833 1018 7368 6388 376 3615 6336 257 3457 1433 1286 3708 2033 82 62 2325 301 75 2024 52 3668 209
internal_count=25880 21286 4594 10085 6470 1275 3319 11201 3833 1018 7368 6388 376 3615 6336 257 3457 1433 1286 3708 2033 82 62 2325 301 75 2024 52 3668 209
is_linear=0
shrinkage=1


Tree=1
num_leaves=31
num_cat=1
split_feature=41 41 41 41 82 41 41 41 87 52 41 41 41 6 41 52 41 41 13 52 41 52 41 41 52 41 52 41 41 41
split_gain=4884.05 933.123 756.495 206.508 160.509 142.978 101.228 93.1282 47.1144 40.3928 38.5241 30.5144 28.233 24.8142 20.4796 19.0809 17.1251 13.6193 13.3654 17.8986 10.7177 9.70119 5.82176 4.75357 4.43595 4.30267 3.67771 3.61325 2.66999 2.66098
threshold=130900.00000000001 69250.000000000015 312500.00000000006 93850.000000000015 292390.78292806301 644500.00000000012 196500.00000000003 56200.000000000007 96.100000000000009 1229.5823081255746 78250.000000000015 49250.000000000007 1125000.0000000002 0 416500.00000000006 2250.5924170616117 110400.00000000001 242500.00000000003 63.850000000000001 2444.7222222222226 160650.00000000003 1875.3048780487807 62250.000000000007 1650000.0000000002 1682.1000885992742 810000.00000000012 1002.5125628140705 84150.000000000015 99250.000000000015 279999.50000000006
decision_type=2 2 2 2 2 2 2 2 2 2 2 2 2 9 2 2 2 2 2 2 2 2 2 2 2 2 2 2 2 2
left_child=1 7 6 4 10 14 20 8 11 26 13 15 25 -3 -4 -1 28 -8 -6 -20 -2 -11 -9 -14 -13 -7 -10 -12 -5 -19
right_child=2 3 5 16 18 12 17 22 9 21 27 24 23 -15 -16 -17 -18 29 19 -21 -22 -23 -24 -25 -26 -27 -28 -29 -30 -31
leaf_value=-0.057583501047090251 0.049937621164270037 -0.0015545229524630815 0.12898617934663387 0.011168276952660603 0.057282621301710607 0.1892616887887319 0.082541402428114835 -0.030334631002664026 -0.04498213439924862 0.0045196012722844457 -0.0033748894749485096 -0.043378961637862701 0.24301274154546126 -0.018808898838173618 0.15902318741283278 -0.034671048182023247 0.032877546774486975 0.097894755499549665 0.081708110713710397 0.18996391466685705 0.066496291644552827 0.057332719015804202 -0.022669255944852508 0.2872082996368408 -0.034521963638209877 0.21620409200253082 -0.027281469930806813 0.003904020952575814 0.019907899006208468 0.11137489527143994
leaf_weight=3085 1178 1136 507 460 20 150 607 2210 263 166 1219 2327 53 3241 411 412 1244 332 24 42 585 44 1796 45 747 98 212 1548 1456 262
leaf_count=3085 1178 1136 507 460 20 150 607 2210 263 166 1219 2327 53 3241 411 412 1244 332 24 42 585 44 1796 45 747 98 212 1548 1456 262
internal_value=0 -0.0191967 0.0983081 0.00241659 -0.00690382 0.163082 0.0706851 -0.0391365 -0.0458932 -0.0209359 -0.0085386 -0.048495 0.217865 -0.0143772 0.142434 -0.0548841 0.0237414 0.0930757 0.128897 0.150598 0.0554321 0.0155852 -0.026898 0.263307 -0.0412267 0.199908 -0.037082 0.000697302 0.0178097 0.103841
internal_weight=0 21652 4228 10390 7230 1264 2964 11262 7256 685 7144 6571 346 4377 918 3497 3160 1201 86 66 1763 210 4006 98 3074 248 475 2767 1916 594
internal_count=25880 21652 4228 10390 7230 1264 2964 11262 7256 685 7144 6571 346 4377 918 3497 3160 1201 86 66 1763 210 4006 98 3074 248 475 2767 1916 594
cat_boundaries=0 4
cat_threshold=1954840994 71304194 9773314 8617152
is_linear=0
shrinkage=0.1


Tree=2
num_leaves=31
num_cat=0
split_feature=41 41 41 41 82 41 41 41 87 41 52 13 41 52 41 52 13 87 41 41 41 52 52 41 41 49 41 87 41 52
split_gain=3957.68 696.273 683.379 139.217 139.727 117.487 100.821 71.8664 34.1109 28.48 24.9405 22.0944 21.5955 21.3112 17.9043 15.3145 17.3138 13.6726 13.4594 11.4409 10.9839 9.67825 7.69625 6.05248 5.60692 4.98545 4.73855 4.37978 4.28797 4.24775
threshold=125468.50000000001 67250.000000000015 302500.00000000006 87150.000000000015 292390.78292806301 572500.00000000012 196500.00000000003 49999.500000000007 91.100000000000009 1125000.0000000002 735.08771929824582 45.350000000000001 58250.000000000007 1995.0728518357698 105500.00000000001 1212.4038896426957 38.250000000000007 207.70000000000002 155495.00000000003 416500.00000000006 226495.00000000003 5634.6847522202734 1002.5125628140705 41250.000000000007 760000.00000000012 1501.5000000000002 97225.000000000015 624.50000000000011 1975000.0000000002 1562.8591954022991
decision_type=2 2 2 2 2 2 2 2 2 2 2 2 2 2 2 2 2 2 2 2 2 2 2 2 2 2 2 2 2 2
left_child=1 7 6 4 10 19 18 8 15 24 -3 -12 17 22 26 23 -17 29 -2 -4 -8 25 -10 -1 -7 -6 -5 -11 -29 -9
right_child=2 3 5 14 21 9 20 12 13 27 11 -13 -14 -15 -16 16 -18 -19 -20 -21 -22 -23 -24 -25 -26 -27 -28 28 -30 -31
leaf_value=-0.065480897701897869 0.041163588941812386 -0.092615205401347753 0.11582668043931939 0.0067831972895999312 0.1279688118894895 0.16426960921033901 0.071607779154290202 -0.037966701393156228 -0.044774634359547733 0.19522701514884833 -0.013963642773466066 -0.0020687989457313354 -0.02407925451153272 0.056303204872778484 0.025588314554412045 -0.048124233308306202 -0.020986849325008803 0.025477752708704084 0.057643907376962483 0.13947740012019344 0.091290710122422292 0.17515142379949492 -0.013842928193739099 -0.050986013886551142 0.19109894098868049 0.069297420233488088 0.015942007906716352 0.23298493453434538 0.28508852395144374 -0.03069281963898304
leaf_weight=649 1344 36 518 1220 30 188 466 2485 130 20 3859 2623 3530 35 1343 2024 266 37 785 338 724 24 211 518 133 28 1052 56 22 1186
leaf_count=649 1344 36 518 1220 30 188 466 2485 130 20 3859 2623 3530 35 1343 2024 266 37 785 338 724 24 211 518 133 28 1052 56 22 1186
internal_value=0 -0.0181679 0.0841755 0.000660629 -0.00797928 0.146403 0.0602706 -0.0355407 -0.0466123 0.189791 -0.00961128 -0.00915029 -0.0296775 -0.0180078 0.0164347 -0.0497234 -0.044972 -0.0350071 0.0472402 0.125165 0.0835829 0.121744 -0.0256351 -0.059047 0.175386 0.0996447 0.011024 0.236976 0.247681 -0.0356167
internal_weight=0 21286 4594 10215 6600 1275 3319 11071 3833 419 6518 6482 7238 376 3615 3457 2290 3708 2129 856 1190 82 341 1167 321 58 2272 98 78 3671
internal_count=25880 21286 4594 10215 6600 1275 3319 11071 3833 419 6518 6482 7238 376 3615 3457 2290 3708 2129 856 1190 82 341 1167 321 58 2272 98 78 3671
is_linear=0
shrinkage=0.1


Tree=3
num_leaves=31
num_cat=1
split_feature=41 41 41 41 82 41 41 41 87 41 13 52 6 41 41 41 41 13 52 41 52 41 13 82 41 52 52 41 41 41
split_gain=3209.32 627.369 478.46 143.055 105.207 85.2209 73.2782 61.5284 33.2174 28.3147 23.8001 20.9673 20.9616 21.9839 16.1461 12.7117 12.5432 10.9105 14.3543 10.8597 9.28358 6.7148 5.35968 5.16889 4.36844 3.68591 2.86991 2.61452 2.41835 2.23271
threshold=136000.00000000003 69999.500000000015 342500.00000000006 93850.000000000015 292390.78292806301 710000.00000000012 202500.00000000003 56200.000000000007 113.90000000000002 77250.000000000015 79.050000000000011 1229.5823081255746 0 48200.000000000007 452500.00000000006 110400.00000000001 1450000.0000000002 63.850000000000001 4529.6861237889352 165350.00000000003 1868.6367558239863 279999.50000000006 79.050000000000011 292390.78292806301 62250.000000000007 952.7935957745317 6035.7142857142871 555000.00000000012 83200.000000000015 372500.00000000006
decision_type=2 2 2 2 2 2 2 2 2 2 2 2 9 2 2 2 2 2 2 2 2 2 2 2 2 2 2 2 2 2
left_child=1 7 6 4 9 14 19 8 12 10 -3 25 20 -14 23 -5 -7 -6 -19 -2 -1 -8 -13 -4 -9 -10 -18 -16 -11 -25
right_child=2 3 5 15 17 16 21 24 11 28 -12 22 13 -15 27 -17 26 18 -20 -21 -22 -23 -24 29 -26 -27 -28 -29 -30 -31
leaf_value=-0.030925641813767696 0.041720338806126876 -0.013110215666479842 0.064734147613247237 0.014391113178695637 0.039663699516095219 0.17249817566119416 0.075195873729570442 -0.024748710229091045 -0.036638138460037405 -0.0023844551032831261 0.038304599528403392 0.015178066207509902 -0.045957935501966807 -0.03424581782633395 0.12936469048419327 0.027046463570361647 0.19495753753185274 0.092116407934162356 0.19224238509223576 0.056958157362157626 -0.0027035580746607077 0.092171387598541127 0.069330484623258762 0.10367415791902788 -0.018120861136296816 -0.011705940734664693 0.23721530437469485 0.14653713628203568 0.0034964703597699684 0.11713319666350067
leaf_weight=243 1128 4211 24 1916 20 187 664 2210 133 1264 92 108 3326 3093 189 1355 25 45 21 799 224 359 22 195 1808 107 45 167 1565 335
leaf_count=243 1128 4211 24 1916 20 187 664 2210 133 1264 92 108 3326 3093 189 1355 25 45 21 799 224 359 22 195 1808 107 45 167 1565 335
internal_value=0 -0.0153171 0.0809635 0.00228543 -0.00557626 0.135165 0.0595219 -0.0316939 -0.0371913 -0.006902 -0.0120109 -0.00800245 -0.0387596 -0.0402517 0.120804 0.0196335 0.186015 0.104367 0.123975 0.0480385 -0.0170242 0.0811531 0.0243423 0.110126 -0.0217663 -0.0255225 0.222123 0.13742 0.000868867 0.112181
internal_weight=0 21763 4117 10489 7218 1167 2950 11274 7256 7132 4303 370 6886 6419 910 3271 257 86 66 1927 467 1023 130 554 4018 240 70 356 2829 530
internal_count=25880 21763 4117 10489 7218 1167 2950 11274 7256 7132 4303 370 6886 6419 910 3271 257 86 66 1927 467 1023 130 554 4018 240 70 356 2829 530
cat_boundaries=0 4
cat_threshold=1140883872 2152006144 10223872 134353088
is_linear=0
shrinkage=0.1


Tree=4
num_leaves=31
num_cat=0
split_feature=41 41 41 41 41 82 41 41 87 52 13 41 52 41 52 13 41 41 87 41 13 13 52 52 41 52 52 13 41 82
split_gain=2600.52 462.951 446.167 90.619 87.29 92.547 55.8169 46.0514 24.3004 22.0609 20.5634 19.4511 18.9097 13.5494 12.5598 20.3768 10.8917 10.4896 9.08732 8.94826 8.40288 7.91055 11.4439 7.78516 6.35299 5.04301 4.09271 3.95385 3.84071 3.56092
threshold=124900.00000000001 292500.00000000006 66499.500000000015 555000.00000000012 85200.000000000015 292390.78292806301 175700.00000000003 49999.500000000007 84.90000000000002 906.02355072463763 84.100000000000009 1125000.0000000002 1555.8902275769749 59999.500000000007 2250.5924170616117 22.050000000000004 99999.500000000015 416500.00000000006 201.06000000000003 217500.00000000003 77.050000000000011 80.050000000000011 3700.6056527590854 1057.8134082542144 140500.00000000003 1051.2092074592076 2223.0829420970272 58.050000000000004 785000.00000000012 292390.78292806301
decision_type=2 2 2 2 2 2 2 2 2 2 2 2 2 2 2 2 2 2 2 2 2 2 2 2 2 2 2 2 2 2
left_child=2 6 7 17 5 9 24 8 14 20 -11 28 25 18 23 -16 -6 27 -9 -8 -4 -7 -23 -1 -2 -10 -14 -3 -5 -18
right_child=1 3 4 11 16 21 19 13 12 10 -12 -13 26 -15 15 -17 29 -19 -20 -21 -22 22 -24 -25 -26 -27 -28 -29 -30 -31
leaf_value=-0.056797096121084439 0.029264060914988968 0.047432492524385451 -0.079767785683788117 0.13283605569479418 0.005620904370785264 0.046009297748761523 0.053788062857733257 -0.028771908000841118 -0.037754506830727529 -0.0078142380288668666 0.050521592648134987 0.19248390100440202 0.013015524846586315 -0.019537677198679645 -0.039211079651947346 0.0093509198547596286 0.016644174993316559 0.11289882230329085 0.019144866375718269 0.070084853766742033 -0.016560997777251583 0.078571254979161662 0.16577413104198599 -0.041235365476644213 0.040826380070193929 -0.016070690080561816 0.063250666597615121 0.092563758207993077 0.15500346495554998 0.055372929169485968
leaf_weight=368 883 20 58 196 1330 21 664 3757 192 6423 61 98 55 3344 285 124 2198 333 40 684 33 34 27 2543 1029 243 23 660 130 24
leaf_count=368 883 20 58 196 1330 21 664 3757 192 6423 61 98 55 3344 285 124 2198 333 40 684 33 34 27 2543 1029 243 23 660 130 24
internal_value=0 0.0673174 -0.0149274 0.114604 0.000119511 -0.0066349 0.0464736 -0.0289253 -0.0377673 -0.00795165 -0.00726543 0.153419 -0.0175115 -0.0241793 -0.0408971 -0.0244881 0.0127783 0.0983574 -0.0282671 0.0620574 -0.0568466 0.0989454 0.117169 -0.0432026 0.0354867 -0.0256415 0.0278285 0.0912364 0.141676 0.0170625
internal_weight=0 4697 21183 1437 10209 6657 3260 10974 3833 6575 6484 424 513 7141 3320 409 3552 1013 3797 1348 91 82 61 2911 1912 435 78 680 326 2222
internal_count=25880 4697 21183 1437 10209 6657 3260 10974 3833 6575 6484 424 513 7141 3320 409 3552 1013 3797 1348 91 82 61 2911 1912 435 78 680 326 2222
is_linear=0
shrinkage=0.1


Tree=5
num_leaves=31
num_cat=0
split_feature=41 41 41 41 82 41 41 41 13 52 13 52 52 13 41 52 13 20 41 41 41 47 41 52 52 41 41 13 52 98
split_gain=2107.6 402.237 327.314 88.2769 68.9391 58.7647 46.7166 40.9292 30.9504 25.5576 21.8186 24.2232 14.9172 33.0401 12.3603 9.52299 9.22311 8.39367 8.29978 8.29966 7.555 6.33785 6.30988 5.58055 4.76597 4.60971 3.72552 2.02795 1.92768 2.64321
threshold=130900.00000000001 69999.500000000015 322500.00000000006 92350.000000000015 292390.78292806301 644500.00000000012 202500.00000000003 54999.500000000007 48.050000000000004 1375.1227897838901 23.950000000000003 2045.7451755405721 1521.9689309679202 32.850000000000001 1595000.0000000002 2688.3167907361462 29.100000000000005 1.0000000180025095e-35 169999.50000000003 109350.00000000001 435000.00000000006 845.25000000000011 62250.000000000007 1039.2173615857828 2223.0829420970272 895000.00000000012 262500.00000000006 150.45000000000002 3602.3255813953492 58650.900000000009
decision_type=2 2 2 2 2 2 2 2 2 2 2 2 2 2 2 2 2 2 2 2 2 2 2 2 2 2 2 2 2 2
left_child=1 7 6 4 10 20 18 8 12 23 15 -12 16 -14 25 -3 -1 21 -2 28 -4 -6 -9 -10 -11 -7 -8 -27 -5 -30
right_child=2 3 5 19 17 14 26 22 9 24 11 -13 13 -15 -16 -17 -18 -19 -20 -21 -22 -23 -24 -25 -26 27 -28 -29 29 -31
leaf_value=-0.063813969584611746 0.033180752066509688 -0.053476565678058002 0.086265149594203033 0.0093907793225982555 0.098201831459999098 0.12522839930924504 0.059986223150922696 -0.021806394777325502 -0.031282590043768078 0.017949631947088235 -0.0082195780039578357 0.0048959282910815112 -0.033437466750143433 -0.00028509017793208172 0.19026278033852578 -0.018308414853743266 -0.036668457437951447 0.12608308323448705 0.0462729844763273 0.02026647056076555 0.10501733916904291 0.030027347182234126 -0.014549049286535463 -0.0085961353351392423 0.067333565846733431 0.12303422824902968 0.072696035417026558 0.15656916213035585 0.0077587479806464649 0.057466197386384012
leaf_weight=130 1246 116 491 1436 25 176 594 3551 264 130 4776 1997 1439 380 48 229 3365 31 792 1695 382 30 1808 184 23 22 377 100 23 20
leaf_count=130 1246 116 491 1436 25 176 594 3551 264 130 4776 1997 1439 380 48 229 3365 31 792 1695 382 30 1808 184 23 22 377 100 23 20
internal_value=0 -0.012611 0.0645787 0.00159507 -0.00452679 0.108293 0.0468693 -0.0256881 -0.0314232 -0.00991376 -0.00560206 -0.00435251 -0.0338559 -0.0265117 0.143169 -0.0301331 -0.0376782 0.0844703 0.0382686 0.0154898 0.0944706 0.0610157 -0.0193579 -0.0219649 0.0253734 0.135583 0.0649209 0.150522 0.0100155 0.0308785
internal_weight=0 21652 4228 10378 7204 1219 3009 11274 5915 601 7118 6773 5314 1819 346 345 3495 86 2038 3174 873 55 5359 448 153 298 971 122 1479 43
internal_count=25880 21652 4228 10378 7204 1219 3009 11274 5915 601 7118 6773 5314 1819 346 345 3495 86 2038 3174 873 55 5359 448 153 298 971 122 1479 43
is_linear=0
shrinkage=0.1


Tree=6
num_leaves=31
num_cat=1
split_feature=41 41 41 41 41 13 41 41 52 52 94 13 52 41 41 41 52 13 41 52 52 13 52 41 41 87 52 98 52 13
split_gain=1708.98 304.384 292.117 64.8371 56.6111 65.4248 33.8217 31.919 27.4408 20.9882 16.8504 16.8123 18.2112 12.8682 10.2094 9.90094 9.8822 12.8629 8.7722 7.13476 7.0079 6.99645 4.54555 4.4509 4.35991 4.27951 4.24973 3.70322 3.34269 3.12339
threshold=120200.00000000001 279999.50000000006 69250.000000000015 555000.00000000012 84150.000000000015 84.100000000000009 49999.500000000007 175700.00000000003 1578.9342105263161 906.02355072463763 0 42.550000000000004 1416.5486307837587 1125000.0000000002 57250.000000000007 97225.000000000015 2501.0638297872342 19.650000000000002 372500.00000000006 3892.9160663227599 1124.2852528089891 67.950000000000017 906.02355072463763 217500.00000000003 148400.00000000003 132.10000000000002 1995.0728518357698 90995.000000000015 1222.2702806612845 173.95000000000002
decision_type=2 2 2 2 2 2 2 2 2 2 9 2 2 2 2 2 2 2 2 2 2 2 2 2 2 2 2 2 2 2
left_child=2 7 6 18 5 9 11 24 28 27 -11 16 22 -5 21 -6 20 -18 -3 -10 -1 -8 -13 -9 -2 -20 -14 -4 -7 -15
right_child=1 3 4 13 15 8 14 23 19 10 -12 12 26 29 -16 -17 17 -19 25 -21 -22 -23 -24 -25 -26 -27 -28 -29 -30 -31
leaf_value=-0.046640171830216029 0.023998481752652609 0.069841675840044193 -0.091705043669100164 0.11491051623426332 0.0039229195533316968 -0.014879536625396992 -0.023684295839560179 0.043639456727598086 0.08380749264978013 -0.021169171237725545 -0.0048458476188207979 -0.041096977352179473 0.0045684484560236651 0.12098034560680389 -0.015662424293179961 0.013620969802701614 -0.033985528753649803 0.01049298525987459 0.042319525927305229 0.15155150294303896 -0.033286455903277501 0.0099414858582710462 -0.019228879753855187 0.055548973536165829 0.033531548710841984 0.08947354365584903 0.042784947191559994 -0.044010343711550645 0.03720908093858849 0.16527624879127895
leaf_weight=468 957 571 27 326 1952 28 3473 664 53 724 4760 126 90 20 3893 2285 155 112 20 22 2452 63 387 595 962 511 43 41 22 78
leaf_count=468 957 571 27 326 1952 28 3473 664 53 724 4760 126 90 20 3893 2285 155 112 20 22 2452 63 387 595 962 511 43 41 22 78
internal_value=0 0.0545219 -0.012112 0.0912313 0.000406096 -0.00612215 -0.0231318 0.0368949 0.0654232 -0.00773295 -0.0070483 -0.0307611 -0.0160509 0.124462 -0.0191955 0.00915305 -0.0337429 -0.0153279 0.0784455 0.103679 -0.0354267 -0.0230852 -0.0246 0.0492679 0.0287774 0.0876975 0.0169242 -0.0629479 0.00803946 0.156236
internal_weight=0 4704 21176 1526 9914 5677 11262 3178 125 5552 5484 3833 646 424 7429 4237 3187 267 1102 75 2920 3536 513 1259 1919 531 133 68 50 98
internal_count=25880 4704 21176 1526 9914 5677 11262 3178 125 5552 5484 3833 646 424 7429 4237 3187 267 1102 75 2920 3536 513 1259 1919 531 133 68 50 98
cat_boundaries=0 16
cat_threshold=0 0 0 0 0 0 0 1073741824 786432 1074135048 1049088 536870976 537920000 67637264 33558594 128
is_linear=0
shrinkage=0.1


Tree=7
num_leaves=31
num_cat=1
split_feature=41 41 41 41 13 41 41 41 52 6 41 98 89 52 41 41 52 13 41 87 41 41 13 87 52 52 41 13 13 98
split_gain=1384.33 246.839 236.932 48.6949 53.7673 40.5299 39.9389 25.396 22.2632 17.1625 14.986 14.223 13.8992 10.6641 9.12195 8.60191 8.31008 16.4827 7.23689 6.12516 6.22007 5.90067 5.58181 5.53753 6.80333 5.07639 4.7907 3.87638 3.20585 2.86079
threshold=120200.00000000001 322500.00000000006 65500.000000000007 80150.000000000015 84.100000000000009 182500.00000000003 760000.00000000012 49250.000000000007 1900.7042253521129 0 70325.000000000015 90534.000000000015 780.22500000000014 1466.9856459330147 482500.00000000006 104950.00000000001 1364.0793903951801 33.350000000000001 59999.500000000007 372.30000000000007 1725000.0000000002 242500.00000000003 32.550000000000004 116.10000000000001 1039.2173615857828 1273.2771005120401 148400.00000000003 127.50000000000001 64.950000000000017 125084.29500000001
decision_type=2 2 2 2 2 2 2 2 2 9 2 2 2 2 2 2 2 2 2 2 2 2 2 2 2 2 2 2 2 2
left_child=2 5 7 4 9 26 14 11 25 12 -11 16 -4 -13 28 -5 22 -18 23 -8 -21 -7 -1 -9 -25 -6 -2 -10 -3 -15
right_child=1 6 3 15 8 21 19 18 27 10 -12 13 -14 29 -16 -17 17 -19 -20 20 -22 -23 -24 24 -26 -27 -28 -29 -30 -31
leaf_value=-0.04964074907156657 0.021598634480468563 0.033509519483361928 -0.0008752562588457655 0.0050834913183889358 -0.013199900666950272 0.042781826063462036 0.072345521152019504 -0.021415836078674255 0.080224516056478026 -0.015845048245561634 -0.0035659460348685295 -0.018240806106944719 0.039730839247637421 0.010451585216020855 0.092022687890699936 0.014686968920358543 -0.029849214177659469 -0.0048761650177896118 -0.014191125916311496 0.12194548604781169 0.16574917107820511 0.055928782446540204 -0.032391486907337848 -0.022467696850935182 0.01664254561858787 0.043235852886494758 0.031164278783980488 0.13167413473129272 0.073240537606360845 0.051931950773881831
leaf_weight=212 957 21 1595 2959 28 733 20 3642 32 2401 1696 323 89 60 350 1362 1225 337 3320 171 40 639 1630 91 87 37 1156 27 617 23
leaf_count=212 957 21 1595 2959 28 733 20 3642 32 2401 1696 323 89 60 350 1362 1225 337 3320 171 40 639 1630 91 87 37 1156 27 617 23
internal_value=0 0.0490697 -0.0109021 4.36557e-05 -0.00585932 0.0355218 0.087802 -0.0211241 0.0592945 -0.00725684 -0.0107358 -0.0277167 0.00126329 -0.0100252 0.0790496 0.00811055 -0.0298268 -0.0244613 -0.0176061 0.125236 0.13025 0.0489049 -0.0343767 -0.0205741 -0.00335202 0.0189251 0.0268319 0.103769 0.0719328 0.0219461
internal_weight=0 4704 21176 10226 5905 3485 1219 10950 124 5781 4097 3810 1684 406 988 4321 3404 1562 7140 231 211 1372 1842 3820 178 65 2113 59 638 83
internal_count=25880 4704 21176 10226 5905 3485 1219 10950 124 5781 4097 3810 1684 406 988 4321 3404 1562 7140 231 211 1372 1842 3820 178 65 2113 59 638 83
cat_boundaries=0 4
cat_threshold=1954578848 2214676224 9773314 134959296
is_linear=0
shrinkage=0.1


Tree=8
num_leaves=31
num_cat=1
split_feature=41 41 41 41 82 41 41 41 6 13 52 52 13 82 52 13 52 52 41 52 41 87 41 41 41 87 82 47 41 41
split_gain=1122 218.5 168.908 50.8104 38.7027 30.6794 25.0221 22.6457 21.4105 16.2052 58.1461 33.3431 10.8123 8.79976 7.21554 10.4362 6.76785 6.56235 6.48465 6.24258 5.42021 5.02265 5.05049 4.05603 3.9652 3.51768 2.97197 2.70065 2.33287 1.5512
threshold=136000.00000000003 69999.500000000015 342500.00000000006 90400.000000000015 292390.78292806301 760000.00000000012 202500.00000000003 54999.500000000007 0 39.050000000000004 2300.3067484662583 1750.7961783439494 54.95000000000001 292390.78292806301 1667.9312089023776 25.550000000000004 5634.6847522202734 906.02355072463763 507500.00000000006 1057.8134082542144 118450.00000000001 406.50000000000006 1450000.0000000002 62250.000000000007 160650.00000000003 88.100000000000009 292390.78292806301 845.25000000000011 262500.00000000006 1975000.0000000002
decision_type=2 2 2 2 2 2 2 2 9 2 2 2 2 2 2 2 2 2 2 2 2 2 2 2 2 2 2 2 2 2
left_child=1 7 6 4 9 13 24 8 14 11 -11 -3 19 -4 25 -16 27 -14 -15 -10 26 -7 -23 -9 -2 -1 -5 -6 -8 -24
right_child=2 3 5 20 16 21 28 23 12 10 -12 -13 17 18 15 -17 -18 -19 -20 -21 -22 22 29 -25 -26 -27 -28 -29 -30 -31
leaf_value=-0.025035536753288897 0.024348187417965017 -0.04634880116682942 0.015760291671311415 0.008309444630220748 0.068102622000050961 0.069407367706298836 0.043712980964970512 -0.015976806499010992 -0.036669569067922035 -0.0028094233691040556 0.057318602012704591 -0.0069133484816701193 -0.027685209038225789 0.068301896026629047 -0.015534135492531754 0.020294821208456902 0.10838116810967524 0.0029593145806274591 0.086928392282400291 -0.024955785605514258 0.017197215467086965 0.10680826443562406 0.12891106890006498 -0.010158213746241518 0.033473375087907146 0.0010746707785747025 0.047036831812001773 0.026273976836466428 0.05339043047669885 0.16051612496376039
leaf_weight=176 1067 236 27 2150 29 24 594 3551 506 4353 167 2343 104 646 141 192 24 213 263 4510 1134 139 44 1808 860 73 20 33 429 24
leaf_count=176 1067 236 27 2150 29 24 594 3551 506 4353 167 2343 104 646 141 192 24 213 263 4510 1134 139 44 1808 860 73 20 33 429 24
internal_value=0 -0.00905749 0.0478708 0.00133066 -0.00338905 0.0800748 0.0351311 -0.0187223 -0.0229883 -0.00419686 -0.000587879 -0.010522 -0.0249587 0.07202 -0.00442823 0.005124 0.0632926 -0.00709441 0.0736911 -0.0261374 0.0115943 0.112713 0.117733 -0.0140138 0.0284207 -0.0173807 0.00866638 0.045839 0.0477713 0.140066
internal_weight=0 21763 4117 10489 7185 1167 2950 11274 5915 7099 4520 2579 5333 936 582 333 86 317 909 5016 3304 231 207 5359 1927 249 2170 62 1023 68
internal_count=25880 21763 4117 10489 7185 1167 2950 11274 5915 7099 4520 2579 5333 936 582 333 86 317 909 5016 3304 231 207 5359 1927 249 2170 62 1023 68
cat_boundaries=0 4
cat_threshold=1409581472 2151776256 10234112 134363328
is_linear=0
shrinkage=0.1


Tree=9
num_leaves=31
num_cat=1
split_feature=41 41 41 13 52 6 41 41 41 41 52 13 52 82 13 52 52 41 52 41 52 87 41 41 52 41 52 41 41 52
split_gain=908.816 180.729 136.816 62.4551 40.2107 33.0611 26.5585 24.8583 21.3464 20.3378 15.4098 37.7926 10.0646 6.99176 6.65862 6.30266 4.96726 4.60103 4.33218 3.62518 3.55283 3.53817 3.19667 3.12041 2.41785 2.36325 1.6313 1.58141 1.46196 1.33322
threshold=136000.00000000003 74250.000000000015 342500.00000000006 70.050000000000011 1555.8902275769749 0 52250.000000000007 710000.00000000012 97225.000000000015 212500.00000000003 1900.7042253521129 36.95000000000001 735.08771929824582 292390.78292806301 35.425000000000004 999.99000000000012 4529.6861237889352 507500.00000000006 7981.7974971558588 170350.00000000003 1024.1524758250882 378.90000000000003 79250.000000000015 118450.00000000001 735.08771929824582 960000.00000000012 2105.8466565526901 262500.00000000006 382500.00000000006 3602.3255813953492
decision_type=2 2 2 2 2 9 2 2 2 2 2 2 2 2 2 2 2 2 2 2 2 2 2 2 2 2 2 2 2 2
left_child=1 3 9 5 15 10 14 13 22 19 20 -12 -8 -4 -7 24 26 28 21 -2 -1 -9 -3 29 -5 -23 -6 -11 -15 -10
right_child=2 8 7 4 16 6 12 18 23 27 11 -13 -14 17 -16 -17 -18 -19 -20 -21 -22 25 -24 -25 -26 -27 -28 -29 -30 -31
leaf_value=-0.042024028301239018 0.022681491432976333 -0.0038722652559137517 0.014184262410358148 -0.037793101402789811 0.048254257028407244 -0.027049038301016418 -0.081192539225925106 0.057965244073420769 0.0082478773806681626 0.039904820096136918 -0.006540334136585617 0.036406979745346707 -0.013445629796451433 0.05524307213911489 -0.019811512303224744 0.018946449288453623 0.11542813337984539 0.07776156223854562 0.13118974276491113 0.031631596233358171 -0.011663066052564137 0.086353136890235993 0.0020470366901751882 0.015477493467430273 -0.0059005433956489843 0.10845404010300244 0.072871783517655872 0.048051387599576049 0.065105077741192841 0.024505038756447342
leaf_weight=40 1287 1287 27 33 47 2395 22 24 1686 536 840 271 6782 238 2709 104 21 237 37 698 1058 87 3134 1134 85 109 63 429 408 52
leaf_count=40 1287 1287 27 33 47 2395 22 24 1686 536 840 271 6782 238 2709 104 21 237 37 698 1058 87 3134 1134 85 109 63 429 408 52
internal_value=0 -0.00815174 0.0430837 -0.0146213 0.0269251 -0.0156602 -0.0177401 0.0720673 0.00468442 0.031618 -0.00434794 0.00393556 -0.0136647 0.0643112 -0.0232076 0.000998704 0.0708616 0.065844 0.0995307 0.0258287 -0.0127691 0.0942063 0.000323865 0.0113968 -0.0148196 0.0986439 0.0623534 0.0435265 0.0614717 0.00873428
internal_weight=0 21763 4117 14470 353 14117 11908 1167 7293 2950 2209 1111 6804 910 5104 222 131 883 257 1985 1098 220 4421 2872 118 196 110 965 646 1738
internal_count=25880 21763 4117 14470 353 14117 11908 1167 7293 2950 2209 1111 6804 910 5104 222 131 883 257 1985 1098 220 4421 2872 118 196 110 965 646 1738
cat_boundaries=0 4
cat_threshold=1954578848 2219132416 9775360 134371521
is_linear=0
shrinkage=0.1


Tree=10
num_leaves=31
num_cat=2
split_feature=41 41 41 41 13 41 41 52 6 41 52 6 13 87 41 52 13 41 13 52 13 41 4 52 98 41 52 82 41 41
split_gain=736.627 131.934 127.38 33.9175 34.4007 27.0691 14.9407 13.9172 12.9246 12.6075 12.0783 9.50924 7.15507 6.88374 6.8618 6.17192 5.86908 7.02991 5.83199 5.33491 6.80293 4.27379 4.08415 3.8888 3.23549 2.45043 2.09428 2.03118 2.0135 2.00381
threshold=120200.00000000001 281500.00000000006 64250.000000000007 79999.500000000015 80.050000000000011 585000.00000000012 170350.00000000003 1400.26525198939 0 46495.000000000007 906.02355072463763 1 42.550000000000004 107.10000000000001 95400.000000000015 1176.8350462861724 100.30000000000001 1450000.0000000002 55.45000000000001 1923.0769230769235 31.950000000000003 365000.00000000006 20.500000000000004 4402.0725388601049 119259.50000000001 222500.00000000003 1832.8067993366501 292390.78292806301 860000.00000000012 55500.000000000007
decision_type=2 2 2 2 2 2 2 2 9 2 2 9 2 2 2 2 2 2 2 2 2 2 2 2 2 2 2 2 2 2
left_child=2 6 8 4 10 18 -2 -6 13 12 24 -12 22 19 -5 -14 -7 28 -3 -1 -21 -20 -10 -9 -4 -8 -15 -16 -18 -11
right_child=1 5 3 14 7 16 25 23 9 29 11 -13 15 26 27 -17 17 -19 21 20 -22 -23 -24 -25 -26 -27 -28 -29 -30 -31
leaf_value=-0.014487880100477375 0.018682818009201019 0.0011901677332141183 -0.068998133473926124 0.0018281986346477125 -0.0015009003488913827 0.029514498673379422 0.029046626564628027 0.054683968047021136 -0.026346996822954369 -0.016304548614396546 7.3743600752872356e-07 -0.0090221569351293593 -0.019600735106347172 0.0093890185402415241 0.0087210090749640472 0.0039475381684799995 0.073576250113546848 0.11427763529560145 0.046307971415059698 -0.0077633601599055432 0.023693219277018215 0.059142060288198267 -0.013710988697211077 0.10366894758882977 -0.026601261438594925 0.037759122020684016 0.040100482237689639 0.03738052213471383 0.090607225422811979 -0.012408725333316046
leaf_weight=497 1874 22 36 3097 46 20 821 71 2287 3508 1608 4331 342 64 2283 165 222 68 482 220 100 562 288 21 36 532 34 25 101 2117
leaf_count=497 1874 22 36 3097 46 20 821 71 2287 3508 1608 4331 342 64 2283 165 222 68 482 220 100 562 288 21 36 532 34 25 101 2117
internal_value=0 0.0357946 -0.00795265 -0.000874891 -0.00595463 0.060549 0.0244644 0.0434099 -0.0164516 -0.0176347 -0.00708793 -0.00659437 -0.0227957 -0.00494571 0.00490407 -0.0119371 0.0823514 0.0850541 0.052143 -0.00800379 0.00206682 0.0532167 -0.0249337 0.0658653 -0.0477997 0.0324724 0.020044 0.00903145 0.0789017 -0.0148383
internal_weight=0 4704 21176 11554 6149 1477 3227 138 9622 8707 6011 5939 3082 915 5405 507 411 391 1066 817 320 1044 2575 92 72 1353 98 2308 323 5625
internal_count=25880 4704 21176 11554 6149 1477 3227 138 9622 8707 6011 5939 3082 915 5405 507 411 391 1066 817 320 1044 2575 92 72 1353 98 2308 323 5625
cat_boundaries=0 4 8
cat_threshold=1149534624 71665152 10225920 134369473 1954546080 2218853120 9773313 142832832
is_linear=0
shrinkage=0.1


Tree=11
num_leaves=31
num_cat=0
split_feature=41 41 41 13 52 52 13 13 41 41 13 41 41 52 52 52 52 13 41 41 82 13 41 52 41 41 98 52 41 52
split_gain=598.612 129.161 80.0026 44.9665 34.179 25.1964 44.1528 20.528 16.3715 16.3357 15.7566 11.3166 10.4941 8.31197 5.95505 5.218 5.19937 4.92424 4.01709 3.75043 3.6233 2.5735 2.52344 2.35012 1.57115 1.36187 1.28833 1.06684 1.06505 0.813998
threshold=140500.00000000003 74250.000000000015 342500.00000000006 67.020000000000024 1441.20907786618 1441.20907786618 47.95000000000001 25.550000000000004 685000.00000000012 109350.00000000001 40.850000000000001 64999.500000000007 212500.00000000003 2200.4784688995223 952.7935957745317 2705.7550292844412 735.08771929824582 115.15000000000002 1850000.0000000002 80150.000000000015 292390.78292806301 127.50000000000001 435000.00000000006 1051.2092074592076 960000.00000000012 165350.00000000003 204459.00000000003 3103.4757302877229 252500.00000000003 1797.0089285714287
decision_type=2 2 2 2 2 2 2 2 2 2 2 2 2 2 2 2 2 2 2 2 2 2 2 2 2 2 2 2 2 2
left_child=1 3 12 5 16 10 7 -7 20 19 11 -1 25 -8 -12 29 -5 -10 24 -3 -4 -17 -22 -18 -19 -2 27 -21 -14 -6
right_child=2 9 8 4 15 6 13 -9 17 -11 14 -13 28 -15 -16 21 23 18 -20 26 22 -23 -24 -25 -26 -27 -28 -29 -30 -31
leaf_value=-0.021745895762797944 0.019294320885656458 -0.0016213423167589656 0.014598843770531509 -0.03460535826378091 0.03251732778377258 -0.019647018565393536 0.016561096455017105 -0.0076643654299363307 0.03162731386366345 0.011715399780173356 -0.026213732053763851 -0.05162644912873892 0.031985079612223404 0.051717231151364423 -0.011636208370618021 0.062944222448600665 -0.0044918773746168289 0.070633247526628626 0.1164146504799525 0.0030677017589620797 0.046981205418705943 0.107683564722538 0.057962949379322927 0.01614429241556288 0.086484603781615751 0.02498629613352403 0.028951169680804013 0.011714156159704241 0.038629690911542919 0.049191563809985545
leaf_weight=2696 825 2385 26 43 52 1919 250 5607 21 2109 309 133 487 92 3010 36 148 140 30 2932 416 20 421 88 113 857 20 150 478 67
leaf_count=2696 825 2385 26 43 52 1919 250 5607 21 2109 309 133 487 92 3010 36 148 140 30 2932 416 20 421 88 113 857 20 150 478 67
internal_value=0 -0.00632425 0.0365802 -0.0118675 0.0191063 -0.0128708 -0.00912284 -0.0107197 0.0583926 0.00423532 -0.0176673 -0.0231507 0.0269637 0.0260183 -0.0129934 0.0537509 -0.00262412 0.0783488 0.0818157 0.00136026 0.0513629 0.0789226 0.0525049 0.00320297 0.0777131 0.0221945 0.00365269 0.00348852 0.0352764 0.0419053
internal_weight=0 22066 3814 14470 454 14016 7868 7526 1167 7596 6148 2829 2647 342 3319 175 279 304 283 5487 863 56 837 236 253 1682 3102 3082 965 119
internal_count=25880 22066 3814 14470 454 14016 7868 7526 1167 7596 6148 2829 2647 342 3319 175 279 304 283 5487 863 56 837 236 253 1682 3102 3082 965 119
is_linear=0
shrinkage=0.1


Tree=12
num_leaves=31
num_cat=0
split_feature=41 41 41 13 52 52 13 13 13 41 41 41 52 41 52 13 52 52 41 87 13 41 41 41 52 41 41 98 52 52
split_gain=485.169 96.7708 71.9707 36.4499 24.6533 21.7896 48.3228 17.3151 16.5231 13.2609 11.2421 10.7 8.81595 7.65538 6.21594 3.98864 3.92639 3.37496 3.31669 3.30101 2.24291 2.00171 1.82417 1.80731 1.67611 1.61175 1.14377 1.09099 2.1986 0.993518
threshold=139388.50000000003 74250.000000000015 342500.00000000006 69.050000000000011 1441.20907786618 1624.9875000000002 43.050000000000004 25.550000000000004 36.650000000000013 685000.00000000012 97225.000000000015 196500.00000000003 1081.2382149591454 69999.500000000015 2750.8389261744974 115.15000000000002 2917.9487179487182 735.08771929824582 1220000.0000000002 113.90000000000002 120.30000000000001 452500.00000000006 242500.00000000003 118450.00000000001 1002.5125628140705 79250.000000000015 1975000.0000000002 171721.00000000003 1273.2771005120401 3602.3255813953492
decision_type=2 2 2 2 2 2 2 2 2 2 2 2 2 2 2 2 2 2 2 2 2 2 2 2 2 2 2 2 2 2
left_child=1 3 11 5 17 8 7 -7 13 19 25 -2 -10 -1 -8 -11 -6 -5 -17 -4 -18 -21 -13 27 -19 -3 -20 29 -29 -12
right_child=2 10 9 4 16 6 14 -9 12 15 23 22 -14 -15 -16 18 20 24 26 21 -22 -23 -24 -25 -26 -27 -28 28 -30 -31
leaf_value=-0.02126687513764507 0.017818190721384203 -0.0027125828451980238 0.0060736859217286115 -0.028759926214430333 0.039083916047080003 -0.016912813060112886 0.022683945480963447 -0.0048431941652223353 -0.020268944995411708 0.02846458298819406 0.0052494559826468295 0.025975573708992179 -0.010611161905309318 -0.0490201031877881 0.060497334778308869 0.066660147145390522 0.055349567070089534 -0.0042036389017052816 0.082951982521404663 0.043519631230681866 0.098879669755697258 0.053667704617672778 0.033488978586778288 0.011367212989182335 0.01373018072966564 0.0014905294545183223 0.10884469598531724 0.0074391278266509779 0.043720503572536554 0.019294485121813174
leaf_weight=1860 1637 1287 20 37 110 1859 333 3296 1145 21 1602 607 5416 105 50 200 29 114 59 539 20 304 691 1149 96 3134 24 61 23 52
leaf_count=1860 1637 1287 20 37 110 1859 333 3296 1145 21 1602 607 5416 105 50 200 29 114 59 539 20 304 691 1149 96 3134 24 61 23 52
internal_value=0 -0.00594346 0.0315471 -0.0106807 0.0188589 -0.0115335 -0.0066496 -0.00919575 -0.0147058 0.0525534 0.00343643 0.0231947 -0.0122966 -0.0227499 0.0276204 0.0705139 0.0495721 -0.000911882 0.0736342 0.0462266 0.073117 0.0471792 0.0299754 0.00829 0.00399468 0.000266959 0.090439 0.00625564 0.0173733 0.00569102
internal_weight=0 21778 4102 14470 406 14064 5538 5155 8526 1167 7308 2935 6561 1965 383 304 159 247 283 863 49 843 1298 2887 210 4421 83 1738 84 1654
internal_count=25880 21778 4102 14470 406 14064 5538 5155 8526 1167 7308 2935 6561 1965 383 304 159 247 283 863 49 843 1298 2887 210 4421 83 1738 84 1654
is_linear=0
shrinkage=0.1


Tree=13
num_leaves=31
num_cat=1
split_feature=41 41 41 13 52 52 13 52 94 13 41 13 41 41 41 52 52 52 41 41 13 52 52 41 82 41 13 41 96 98
split_gain=393.647 84.5222 52.4132 30.0369 30.9437 17.9866 20.1233 13.7109 12.4492 11.4671 10.8033 9.61074 9.47501 9.29207 9.16113 4.64899 3.816 3.04525 2.38256 2.32221 2.17661 1.54339 1.47989 1.26744 0.978925 0.954967 0.75432 0.643286 0.606057 0.586014
threshold=140500.00000000003 74250.000000000015 355000.00000000006 62.050000000000004 1349.265843268842 1333.7200309358084 45.050000000000004 1800.2770083102494 0 44.850000000000001 104950.00000000001 64.950000000000017 860000.00000000012 64999.500000000007 222500.00000000003 2125.4453681710215 735.08771929824582 869.96779388083746 82150.000000000015 535000.00000000012 127.50000000000001 1136.657270378201 7981.7974971558588 179999.50000000003 292390.78292806301 279999.50000000006 155.50000000000003 118450.00000000001 1500.2000000000003 79896.250000000015
decision_type=2 2 2 2 2 2 2 2 9 2 2 2 2 2 2 2 2 2 2 2 2 2 2 2 2 2 2 2 2 2
left_child=1 3 14 5 16 9 8 -8 -7 13 18 -4 19 -1 23 -6 -5 -11 -3 -13 -17 -18 26 29 28 -16 -14 -12 -20 -2
right_child=2 10 11 4 15 6 7 -9 -10 17 27 12 22 -15 25 20 21 -19 24 -21 -22 -23 -24 -25 -26 -27 -28 -29 -30 -31
leaf_value=-0.01892921811670159 0.0049712574813101026 -0.0013493651448830358 -0.019281286019831895 -0.030148416034017619 0.027135020224941953 -0.015695128473238749 -0.00044529974023367521 0.030739064563903479 -0.0070662159173914621 -0.028531859678098528 0.006978834473065164 0.041988498689494586 0.049473607763648036 -0.047007732141402463 0.027094686242287083 0.046712328544817869 -0.0042747596007856456 -0.0094114645799676915 0.0025555406292192889 0.053013057518870602 0.079107345587440911 0.01179360757248591 0.090466848952429638 0.021492155380353022 0.024939296245574952 0.033250366068273723 0.070501861335902388 0.010495887226933872 0.014126073725966979 0.016638854382120285
leaf_weight=2380 45 2427 20 52 132 2324 516 194 6193 87 815 498 20 124 483 80 330 1957 2851 310 28 73 35 768 20 527 116 1437 46 992
leaf_count=2380 45 2427 20 52 132 2324 516 194 6193 87 815 498 20 124 483 80 330 1957 2851 310 28 73 35 768 20 527 116 1437 46 992
internal_value=0 -0.00512849 0.0296638 -0.00961266 0.010671 -0.010636 -0.00809912 0.0080755 -0.00944748 -0.015783 0.00341362 0.0493421 0.050744 -0.0203197 0.0226803 0.0397242 -0.00465375 -0.0102253 0.000965479 0.0462182 0.055111 -0.00136411 0.0721288 0.018413 0.00289147 0.0303066 0.0674095 0.00922306 0.00273926 0.0161325
internal_weight=0 22066 3814 14470 695 13775 9227 710 8517 4548 7596 999 979 2504 2815 240 455 2044 5344 808 108 403 171 1805 2917 1010 136 2252 2897 1037
internal_count=25880 22066 3814 14470 695 13775 9227 710 8517 4548 7596 999 979 2504 2815 240 455 2044 5344 808 108 403 171 1805 2917 1010 136 2252 2897 1037
cat_boundaries=0 14
cat_threshold=0 0 268435456 2097152 0 256 20971530 1073746944 917504 1342504970 68420224 536870976 537920000 524304
is_linear=0
shrinkage=0.1


Tree=14
num_leaves=31
num_cat=1
split_feature=41 41 82 13 52 52 41 94 52 41 52 41 13 52 41 13 81 41 13 41 52 13 4 41 13 41 79 13 52 13
split_gain=318.875 68.6873 42.5881 24.3372 49.824 20.9439 16.858 11.7921 12.5854 7.35704 7.23443 6.28206 5.86098 4.59015 3.81776 3.81341 3.29499 2.8613 2.42326 2.34581 2.42795 1.69263 1.53405 1.47956 1.11303 0.966282 0.918049 0.870784 0.773276 5.36415
threshold=140500.00000000003 76500.000000000015 292390.78292806301 48.050000000000004 1547.8033318590599 1218.2863113897599 535000.00000000012 0 1837.0025175424503 59999.500000000007 2705.7550292844412 109350.00000000001 36.350000000000001 735.08771929824582 860000.00000000012 35.95000000000001 3.5000000000000004 355000.00000000006 88.050000000000011 202500.00000000003 2001.1441647597255 55.45000000000001 8.5000000000000018 1940000.0000000002 57.050000000000004 89400.000000000015 0.40129870129870138 37.45000000000001 3103.4757302877229 37.650000000000013
decision_type=2 2 2 2 2 2 2 9 2 2 2 2 2 2 2 2 2 2 2 2 2 2 2 2 2 2 2 2 2 2
left_child=1 3 12 5 13 9 17 16 -9 15 21 25 -2 26 -8 -1 -7 -4 -15 -14 -21 -6 -12 -16 -22 -3 -5 -11 -27 -30
right_child=2 11 6 4 10 7 14 8 -10 27 22 -13 19 18 23 -17 -18 -19 -20 20 24 -23 -24 -25 -26 28 -28 -29 29 -31
leaf_value=-0.030561399972829664 -0.030803189352154731 0.00035299285830878857 0.028096989312832304 -0.019167169127487452 0.015305838270292603 -0.014070179836708767 0.047833425496904232 -0.0095133756184775636 -0.0014200467034347214 -0.061232530257918617 0.080736291692370468 0.0085435427589304024 0.015751986214697443 -0.0049601445772590709 0.062575502837526387 -0.016920306902247832 -0.026705466487840654 0.038016447998583322 0.018454608085254828 -0.0095548951829021629 0.0021962739802388986 0.030466712796959866 0.049919891240341324 0.08891675734519959 0.025114478123982233 0.0028821518586455226 -0.04175967431494168 -0.040947944127907192 0.0017693895801714017 0.057090334594249725
leaf_weight=244 25 2105 695 37 114 1807 313 6152 2794 33 21 2109 1491 2486 145 1280 233 500 45 22 22 208 70 25 576 2107 35 59 106 21
leaf_count=244 25 2105 695 37 114 1807 313 6152 2794 33 21 2109 1491 2486 145 1280 233 500 45 22 22 208 70 25 576 2107 35 59 106 21
internal_value=0 -0.00461668 0.0266974 -0.00820157 -0.00013244 -0.0101327 0.0386197 -0.00856919 -0.00697788 -0.0207621 0.0321351 0.00406646 0.0173315 -0.00525211 0.0543856 -0.0191043 -0.0154377 0.0322474 -0.00454384 0.0179016 0.023071 0.0250992 0.0570314 0.0664492 0.0242713 0.00189034 -0.0301496 -0.0482239 0.00333892 0.0109169
internal_weight=0 22066 3814 15618 3016 12602 1678 10986 8946 1616 413 6448 2136 2603 483 1524 2040 1195 2531 2111 620 322 91 170 598 4339 72 92 2234 127
internal_count=25880 22066 3814 15618 3016 12602 1678 10986 8946 1616 413 6448 2136 2603 483 1524 2040 1195 2531 2111 620 322 91 170 598 4339 72 92 2234 127
cat_boundaries=0 14
cat_threshold=0 0 268435456 2097152 16384 256 20971530 1073746944 655360 1342504970 67371648 536870992 537920000 16
is_linear=0
shrinkage=0.1


Tree=15
num_leaves=31
num_cat=1
split_feature=41 41 82 41 41 52 13 6 52 13 41 13 52 52 13 41 13 82 41 52 41 52 41 87 4 52 41 13 41 52
split_gain=258.637 49.0317 46.0008 13.7642 11.6976 12.6327 12.7243 6.90517 6.24249 7.30118 5.86222 6.13242 10.956 4.83634 5.74444 3.67036 5.55488 3.25286 3.1561 2.89107 2.40572 1.87568 1.79286 1.64267 1.54793 1.25787 1.19936 1.06731 0.993607 0.89072
threshold=129385.50000000001 63250.000000000007 292390.78292806301 507500.00000000006 80150.000000000015 3501.2077294685996 26.050000000000004 0 735.08771929824582 67.020000000000024 45250.000000000007 29.100000000000005 1515.2385928248002 1923.0769230769235 30.950000000000003 159750.00000000003 40.050000000000004 91815.270669796912 860000.00000000012 3971.3064713064718 292500.00000000006 1422.3925503008704 109350.00000000001 107.10000000000001 10.500000000000002 2368.7835290706112 1975000.0000000002 79.050000000000011 217500.00000000003 975.30487804878055
decision_type=2 2 2 2 2 2 2 9 2 2 2 2 2 2 2 2 2 2 2 2 2 2 2 2 2 2 2 2 2 2
left_child=1 7 15 20 5 8 -7 13 -3 -10 11 17 -13 23 19 -2 -17 -9 -5 -15 -4 -18 -6 29 -8 -16 -20 -12 -23 -1
right_child=2 4 3 18 22 6 24 10 9 -11 27 12 -14 14 25 16 21 -19 26 -21 -22 28 -24 -25 -26 -27 -28 -29 -30 -31
leaf_value=-0.030191062167286876 0.0099999313009193 -0.043791794874950461 0.022172535648164543 0.042952780536959112 0.0024226075606054356 -0.0035717672441945708 0.076678009995299834 -0.02785970239462901 -0.0039283132756257238 0.010130177262043247 -0.0091038543417400614 -0.014203009618824331 0.0095111090398859247 -0.0060377502711630908 0.013198772301918574 -0.030590849992586301 -0.011104632067409428 -0.014492123397668042 0.056398810190467601 0.027225331891456556 0.031893535442740518 0.016377681987016952 0.006796315685998127 0.0059510675384304851 0.045522044222945202 0.031383406586333443 0.080520992229382193 0.011605702541768551 0.021660954057879281 -0.0087498351317868411
leaf_weight=20 1312 38 368 321 3102 73 23 441 6692 391 5441 1987 216 264 88 24 22 310 146 29 826 977 1343 78 52 67 24 25 560 620
leaf_count=20 1312 38 368 321 3102 73 23 441 6692 391 5441 1987 216 264 88 24 22 310 146 29 826 977 1343 78 52 67 24 25 560 620
internal_value=0 -0.00463725 0.0215569 0.0346932 -0.000297002 -0.00276812 0.0261487 -0.009941 -0.00336911 -0.00315225 -0.0109359 -0.0145381 -0.0118779 -0.00264012 0.00549051 0.0139111 0.0171527 -0.0223418 0.0487873 -0.0027455 0.0288974 0.0178876 0.00374407 -0.00775005 0.0550765 0.0210592 0.0598043 -0.00900913 0.0183026 -0.00941987
internal_weight=0 21300 4580 1685 11714 7269 148 9586 7121 7083 8420 2954 2203 1166 448 2895 1583 751 491 293 1194 1559 4445 718 75 155 170 5466 1537 640
internal_count=25880 21300 4580 1685 11714 7269 148 9586 7121 7083 8420 2954 2203 1166 448 2895 1583 751 491 293 1194 1559 4445 718 75 155 170 5466 1537 640
cat_boundaries=0 4
cat_threshold=1149534624 71665152 12396800 134377665
is_linear=0
shrinkage=0.1


Tree=16
num_leaves=31
num_cat=1
split_feature=41 82 41 41 52 13 52 52 52 6 41 13 52 13 41 13 52 13 52 41 13 41 87 52 52 52 97 81 41 13
split_gain=209.612 44.1459 34.745 11.3623 9.76788 8.50534 23.7481 16.7967 9.59445 5.58309 4.73477 4.87871 9.21121 4.40267 4.39513 4.49945 3.86465 5.12838 3.32103 3.25675 2.31866 1.82693 1.64136 1.52198 1.5193 1.16449 1.08789 0.970544 0.859442 0.829832
threshold=118450.00000000001 292390.78292806301 63250.000000000007 644500.00000000012 6035.7142857142871 40.050000000000004 2776.428571428572 1587.3015873015877 1786.1033302209776 0 46495.000000000007 23.050000000000004 1818.9422102061512 21.650000000000002 159750.00000000003 40.050000000000004 2157.1115755947058 26.850000000000005 1944.7622679888129 382500.00000000006 30.950000000000003 1450000.0000000002 100.10000000000001 3971.3064713064718 1422.3925503008704 3126.6293013555792 35.500000000000007 2.5000000000000004 190250.00000000003 63.850000000000001
decision_type=2 2 2 2 2 2 2 2 2 9 2 2 2 2 2 2 2 2 2 2 2 2 2 2 2 2 2 2 2 2
left_child=2 14 9 19 5 7 8 20 -7 16 11 18 -13 -9 -2 -16 22 23 -11 -3 -4 -5 -1 -18 -17 -19 29 -8 -26 -12
right_child=1 3 4 21 -6 6 27 13 -10 10 26 12 -14 -15 15 24 17 25 -20 -21 -22 -23 -24 -25 28 -27 -28 -29 -30 -31
leaf_value=-0.007590895102004256 0.0083650148765189881 0.022894589237690499 -0.059296386369637077 0.043770063108336317 0.069103538095951086 -0.0015455874387362884 0.047836379513696389 -0.014657351951766302 0.0075493434245910403 -0.036157958912849425 -0.0083827057787698687 -0.01284173473364387 0.011258411376791844 -0.002012353939742105 -0.027531765564344824 -0.0099941680546511303 -0.0066653619365145758 0.018744763745788005 -0.017324005638438979 0.032868884958634471 -0.028253057908419282 0.062082403043613711 0.0056877544077268858 0.020318074464254703 0.013782413849370803 0.04462558435542243 0.0060543123511942456 0.023854363178834322 0.018551094950667681 0.0007680598586465758
leaf_weight=716 1975 794 28 274 20 4938 108 296 1516 125 5269 2363 170 3946 24 22 162 101 373 557 171 68 107 24 670 21 54 20 867 101
leaf_count=716 1975 794 28 274 20 4938 108 296 1516 125 5269 2363 170 3946 24 22 162 101 373 557 171 68 107 24 670 21 54 20 867 101
internal_value=0 0.0178364 -0.00454204 0.0311287 -0.000718348 -0.000845032 0.00143666 -0.00422673 0.000590749 -0.0089469 -0.00982595 -0.0130032 -0.0112243 -0.0028947 0.0115116 0.0154374 -0.00226844 0.00726689 -0.0220514 0.0270069 -0.032621 0.0474111 -0.00586451 -0.00318363 0.0160989 0.0231997 -0.00806858 0.0440892 0.0164724 -0.0082106
internal_weight=0 5251 20629 1693 11043 11023 6582 4441 6454 9586 8455 3031 2533 4242 3558 1583 1131 308 498 1351 199 342 823 186 1559 122 5424 128 1537 5370
internal_count=25880 5251 20629 1693 11043 11023 6582 4441 6454 9586 8455 3031 2533 4242 3558 1583 1131 308 498 1351 199 342 823 186 1559 122 5424 128 1537 5370
cat_boundaries=0 4
cat_threshold=1149534624 2219148800 12321024 142767297
is_linear=0
shrinkage=0.1


Tree=17
num_leaves=31
num_cat=0
split_feature=41 41 82 41 52 13 41 13 52 52 13 13 13 52 52 98 52 13 52 41 41 52 41 13 41 13 41 4 41 98
split_gain=170.284 34.3155 26.8454 9.52623 9.14663 17.765 9.086 8.73378 5.58002 5.01031 8.24991 6.7755 4.94689 10.2261 5.94015 3.67865 2.55468 2.3233 2.11238 2.11185 2.04912 1.82772 1.69068 1.18962 1.13455 1.08829 1.04908 0.972593 0.861768 0.756063
threshold=130900.00000000001 63250.000000000007 292390.78292806301 85200.000000000015 3057.2304333221368 28.050000000000004 535000.00000000012 21.650000000000002 1002.5125628140705 2800.8620689655177 22.550000000000004 18.050000000000004 40.050000000000004 1499.9833333333336 1124.2852528089891 73154.60000000002 2182.1143026354762 14.100000000000001 1250.0104166666667 860000.00000000012 182500.00000000003 3752.3584905660387 299999.50000000006 49.95000000000001 39450.000000000007 17.050000000000004 109350.00000000001 7.5000000000000009 1940000.0000000002 174014.60000000003
decision_type=2 2 2 2 2 2 2 2 2 2 2 2 2 2 2 2 2 2 2 2 2 2 2 2 2 2 2 2 2 2
left_child=1 9 15 4 7 25 22 16 -9 11 17 24 14 -14 -13 -2 -3 -11 -17 -8 -20 -19 -4 -22 -1 -6 29 -7 -21 -5
right_child=2 3 6 26 5 27 19 8 -10 10 -12 12 13 -15 -16 18 -18 21 20 28 23 -23 -24 -25 -26 -27 -28 -29 -30 -31
leaf_value=-0.037837925112647254 -0.028832960958507931 -0.059790208393877199 0.01788644572654664 0.0022776174298944859 -0.020472645086612409 0.064444727255474954 0.034868874165196767 -0.017298883659195557 -0.0018634151226246684 -0.021492055542166197 0.03242351921734872 -0.021983384246867833 -0.0066686693339132316 0.013684909050369868 -0.0089562814560059708 -0.020133803263306618 -0.022313268042302561 -0.0024746794245949616 0.010228774191214401 0.045758009726374317 -0.0058807120813677708 0.028396768051953541 0.02601135988374035 0.016664890374176625 -0.019742331666251025 0.00098879692362071714 0.005829195402903279 0.040751247945232223 0.065861229717731479 0.014143330779519271
leaf_weight=82 22 22 371 2271 26 21 313 242 7271 62 77 372 2491 274 5926 20 105 221 1539 145 24 21 827 942 60 259 1695 99 25 55
leaf_count=82 22 22 371 2271 26 21 313 242 7271 62 77 372 2491 274 5926 20 105 221 1539 145 24 21 827 942 60 259 1695 99 25 55
internal_value=0 -0.00358579 0.018355 -3.73892e-05 -0.00202386 0.012621 0.0281634 -0.0028002 -0.0023606 -0.00805221 0.00318512 -0.00851733 -0.00817773 -0.00465171 -0.00972575 0.0118815 -0.0288053 -0.00422066 0.0122363 0.039742 0.0124947 0.000204248 0.0234952 0.0161048 -0.0301919 -0.000969089 0.00393704 0.0448976 0.0487144 0.00255819
internal_weight=0 21652 4228 12066 8045 405 1681 7640 7513 9586 381 9205 9063 2765 6298 2547 127 304 2525 483 2505 242 1198 966 142 285 4021 120 170 2326
internal_count=25880 21652 4228 12066 8045 405 1681 7640 7513 9586 381 9205 9063 2765 6298 2547 127 304 2525 483 2505 242 1198 966 142 285 4021 120 170 2326
is_linear=0
shrinkage=0.1


Tree=18
num_leaves=31
num_cat=1
split_feature=41 41 82 13 52 52 94 52 41 41 13 41 13 52 13 41 52 52 52 41 82 13 88 13 41 41 52 13 13 87
split_gain=138.251 31.6974 18.0693 15.3158 21.6553 11.0132 8.66763 12.2943 7.49159 5.86332 5.5451 3.5014 3.4126 3.25602 2.51208 2.40728 2.07677 1.45596 1.13329 1.12829 1.01972 1.01456 0.82594 0.809277 0.705511 0.697529 0.607421 0.603961 0.579158 0.577183
threshold=140500.00000000003 73250.000000000015 292390.78292806301 56.050000000000004 1298.9232989232992 1143.0290527763455 0 2277.0503434708294 685000.00000000012 69999.500000000015 34.050000000000004 95400.000000000015 36.350000000000001 2115.5048076923081 37.650000000000013 382500.00000000006 735.08771929824582 1309.5357142857144 6804.1526374859723 202500.00000000003 292390.78292806301 134.25000000000003 4803.0000000000009 57.050000000000004 56200.000000000007 110400.00000000001 1444.5336186909224 37.050000000000004 48.050000000000004 315.95000000000005
decision_type=2 2 2 2 2 2 9 2 2 2 2 2 2 2 2 2 2 2 2 2 2 2 2 2 2 2 2 2 2 2
left_child=1 3 12 5 16 9 7 -7 15 14 -8 -3 -2 24 -1 26 -5 -14 -10 -19 25 -15 -18 -21 -6 29 -4 -11 -28 -13
right_child=2 11 8 4 13 6 10 -9 18 27 -12 20 17 21 -16 -17 22 19 -20 23 -22 -23 -24 -25 -26 -27 28 -29 -30 -31
leaf_value=-0.023618647067124035 -0.025251214392483234 0.00035668772653855491 0.010307949809357524 -0.021408152629268328 0.011101060895540926 -0.0020040954430185875 -0.0095320451373738947 0.025925136135752397 0.036179725594391914 -0.052978238215049114 -0.0048368279199698713 0.0027184287243721475 -0.014939618464559318 0.033352236608222417 -0.011556420465649078 0.02699357234050391 -0.0029803907176039748 0.010665571560956114 0.050503461175177206 -0.0030785730023953051 0.021927132227403279 0.055788351505994795 0.015841824281960726 0.01645169649210652 0.022180490442909873 0.0059466186460720473 0.010516965211584017 -0.034561375183039818 0.020428387045695769 0.017746700698402351
leaf_weight=203 25 4417 80 62 91 1136 4258 183 227 24 6146 1497 20 104 1155 599 815 1473 73 22 34 25 24 596 156 1641 65 69 634 26
leaf_count=203 25 4417 80 62 91 1136 4258 183 227 24 6146 1497 20 104 1155 599 815 1473 73 22 34 25 24 596 156 1641 65 69 634 26
internal_value=0 -0.00303986 0.017579 -0.00579114 0.00466529 -0.00680472 -0.00578751 0.00185677 0.0253448 -0.0150231 -0.00675193 0.00218126 0.0114784 0.0248237 -0.0133595 0.0222271 -0.00374708 0.0119133 0.0396652 0.0121702 0.00470132 0.0377003 -0.00244197 0.0157564 0.0180986 0.00451621 0.018562 -0.0393141 0.0195067 0.00297498
internal_weight=0 22066 3814 14451 1277 13174 11723 1319 1678 1451 10404 7615 2136 376 1358 1378 901 2111 300 2091 3198 129 839 618 247 3164 779 93 699 1523
internal_count=25880 22066 3814 14451 1277 13174 11723 1319 1678 1451 10404 7615 2136 376 1358 1378 901 2111 300 2091 3198 129 839 618 247 3164 779 93 699 1523
cat_boundaries=0 18
cat_threshold=0 0 0 0 0 0 8388608 0 0 0 0 1048576 2098176 135274528 69214340 808517896 2576421256 1
is_linear=0
shrinkage=0.1


Tree=19
num_leaves=31
num_cat=0
split_feature=41 41 82 52 13 13 52 13 52 41 52 52 13 13 41 41 41 52 41 13 41 87 52 52 13 4 13 41 13 52
split_gain=112.005 26.1468 14.2327 13.3379 19.5769 11.3593 20.688 7.56428 9.12541 6.15641 4.57968 4.07125 3.15468 2.49402 2.3182 1.951 1.73459 1.19155 0.948151 0.934415 0.856407 0.78033 1.56756 0.764897 6.06928 0.748212 0.638974 0.467889 0.446338 0.440183
threshold=145100.00000000003 75400.000000000015 292390.78292806301 2838.1328927180462 26.050000000000004 40.050000000000004 1875.3048780487807 21.650000000000002 1486.1003861003862 492500.00000000006 1222.2702806612845 1944.7622679888129 36.350000000000001 15.050000000000002 45250.000000000007 104950.00000000001 1025000.0000000001 1309.5357142857144 292500.00000000006 55.45000000000001 186500.00000000003 282.40000000000003 1270.5327266815332 2857.4929971988799 38.050000000000004 6.5000000000000009 80.050000000000011 1915000.0000000002 80.050000000000011 3337.719298245614
decision_type=2 2 2 2 2 2 2 2 2 2 2 2 2 2 2 2 2 2 2 2 2 2 2 2 2 2 2 2 2 2
left_child=1 3 12 5 13 7 10 11 -9 18 -7 -1 -2 29 -15 21 -11 -14 -4 -8 -19 23 -23 -3 -25 -6 -22 -18 -27 -5
right_child=2 15 9 4 25 6 19 8 -10 16 -12 -13 17 14 -16 -17 27 20 -20 -21 26 22 -24 24 -26 28 -28 -29 -30 -31
leaf_value=-0.038680429826764506 -0.026397510022734817 0.00079521015501875583 0.014277252760764801 -0.024396051084849893 0.049377446373303734 -0.0069551444335584555 0.018403519126760928 -0.01130875262634563 -0.0044850616893741917 0.028550772697947886 -0.0010905810681089802 -0.015192741524702536 -0.013445655992254616 0.018392964676091011 -0.0013561203097474468 0.0049389653469487952 0.038714468831728611 0.0091912435632466351 0.020513418679263262 0.029571415163576604 0.010842080620650743 0.00091491439379751691 0.035502388710156089 0.00087088000373005791 0.04648864815632503 0.033738611613195024 0.016073883967706409 0.053641090784887116 0.020391559020305677 -0.010479438404881341
leaf_weight=85 23 3879 361 41 27 2328 187 3139 5217 454 3111 560 20 68 472 2307 84 1101 751 125 496 38 20 251 33 152 441 28 30 51
leaf_count=85 23 3879 361 41 27 2328 187 3139 5217 454 3111 560 20 68 472 2307 84 1101 751 125 496 38 20 251 33 152 441 28 30 51
internal_value=0 -0.00271297 0.0159578 -0.00493746 0.00731171 -0.00563578 -0.00216423 -0.00785385 -0.00704844 0.0228103 -0.00360073 -0.018288 0.0104324 -0.00146211 0.0011308 0.00260054 0.0313004 0.010844 0.0184889 0.0228778 0.0110823 0.00132247 0.0128416 0.00116198 0.00617154 0.0338431 0.0133044 0.0424461 0.0315385 -0.0166814
internal_weight=0 22121 3759 15593 841 14752 5751 9001 8356 1678 5439 645 2081 632 540 6528 566 2058 1112 312 2038 4221 58 4163 284 209 937 112 182 92
internal_count=25880 22121 3759 15593 841 14752 5751 9001 8356 1678 5439 645 2081 632 540 6528 566 2058 1112 312 2038 4221 58 4163 284 209 937 112 182 92
is_linear=0
shrinkage=0.1


Tree=20
num_leaves=31
num_cat=0
split_feature=41 13 52 52 82 13 13 41 41 52 52 41 52 52 13 41 13 52 41 13 52 41 52 13 41 41 52 41 41 13
split_gain=90.8756 17.2889 16.4338 16.1816 15.8519 10.3052 8.40544 7.1663 6.27645 6.15944 5.75955 5.1557 5.01325 4.44937 3.22861 3.08451 2.79903 2.41086 2.29782 2.26518 2.20236 2.04129 1.96796 1.91244 1.81373 1.5406 1.23546 1.13786 1.1155 0.93645
threshold=129385.50000000001 46.050000000000004 2218.6638359624844 1731.4354236987035 292390.78292806301 26.850000000000005 30.050000000000004 104950.00000000001 50250.000000000007 1039.2173615857828 1406.4498081841434 435000.00000000006 2571.6517857142867 2600.1485884101044 88.050000000000011 69999.500000000015 16.050000000000004 735.08771929824582 70325.000000000015 24.050000000000004 1323.8409770687938 342500.00000000006 813.02966101694926 61.95000000000001 860000.00000000012 159750.00000000003 2045.7451755405721 69999.500000000015 74250.000000000015 134.25000000000003
decision_type=2 2 2 2 2 2 2 2 2 2 2 2 2 2 2 2 2 2 2 2 2 2 2 2 2 2 2 2 2 2
left_child=1 3 10 6 21 12 19 28 26 22 17 -6 15 -10 18 -5 -14 -3 -12 -1 -11 25 -8 -19 -13 -2 -7 -21 29 -4
right_child=4 2 7 5 11 8 9 -9 13 20 14 24 16 -15 -16 -17 -18 23 -20 27 -22 -23 -24 -25 -26 -27 -28 -29 -30 -31
leaf_value=-0.035163383623180187 0.0060385723182684523 -0.020113645462940137 0.025992950879800948 -0.010341198127997027 0.015705644431730725 0.0079749762683786682 -0.044243846929842429 0.0056360097900985491 -0.0013481741137504543 -0.008870129781135265 0.010371558258686409 0.024099627662848972 -0.014989358658793301 0.0061445041185685875 0.032030961987911721 -0.02764364489887515 -0.00064249424609129835 -0.0038886081406630441 0.0020940588113753733 -0.01605042955941624 -0.0050679251858973106 -0.017659756876528262 -0.017806615429272095 0.00091306830424017912 0.035915174763101868 0.010692878409835445 0.020116344774512324 -0.038595461472868922 0.045574300438165669 0.047167277724171681
leaf_weight=92 1312 75 161 863 964 160 31 176 3835 2341 398 551 158 999 40 117 976 2100 2131 333 4362 30 307 1371 170 1553 176 24 50 24
leaf_count=92 1312 75 161 863 964 160 31 176 3835 2341 398 551 158 999 40 117 976 2100 2131 333 4362 30 307 1371 170 1553 176 24 50 24
internal_value=0 -0.00274877 0.0015379 -0.00464229 0.0127781 -0.00128632 -0.00790595 0.0208942 0.00111888 -0.00706 0.000236921 0.0204894 -0.00716847 0.000200271 0.00384257 -0.0124069 -0.00264144 -0.00237529 0.00339673 -0.0211717 -0.00639583 0.00828976 -0.0202313 -0.00199201 0.0268855 0.00856148 0.0143347 -0.0175661 0.0323217 0.0287399
internal_weight=0 21300 6526 14774 4580 7284 7490 411 5170 7041 6115 1685 2114 4834 2569 980 1134 3546 2529 449 6703 2895 338 3471 721 2865 336 357 235 185
internal_count=25880 21300 6526 14774 4580 7284 7490 411 5170 7041 6115 1685 2114 4834 2569 980 1134 3546 2529 449 6703 2895 338 3471 721 2865 336 357 235 185
is_linear=0
shrinkage=0.1


Tree=21
num_leaves=31
num_cat=1
split_feature=41 41 52 13 13 82 52 13 41 13 52 13 41 13 52 41 52 41 41 52 13 13 13 52 41 9 96 13 4 98
